digraph Tree {
node [shape=box, style="filled, rounded", color="black", fontname="helvetica"] ;
edge [fontname="helvetica"] ;
0 [label="src_bytes <= 28.5\ngini = 0.57\nsamples = 59864\nvalue = [50739, 34439, 8571, 705, 25]", fillcolor="#f8ddc9"] ;
1 [label="diff_srv_rate <= 0.035\ngini = 0.431\nsamples = 27702\nvalue = [3566, 31547, 8389, 20, 6]", fillcolor="#a8ee7d"] ;
0 -> 1 [labeldistance=2.5, labelangle=45, headlabel="True"] ;
2 [label="dst_host_srv_count <= 205.5\ngini = 0.565\nsamples = 6326\nvalue = [3471, 950, 5427, 20, 4]", fillcolor="#c2f7ed"] ;
1 -> 2 ;
3 [label="dst_host_srv_diff_host_rate <= 0.47\ngini = 0.52\nsamples = 5119\nvalue = [1909, 950, 5105, 20, 4]", fillcolor="#97f1e1"] ;
2 -> 3 ;
4 [label="dst_host_same_src_port_rate <= 0.515\ngini = 0.607\nsamples = 3701\nvalue = [1836, 944, 2972, 20, 4]", fillcolor="#c6f8ee"] ;
3 -> 4 ;
5 [label="srv_count <= 4.5\ngini = 0.609\nsamples = 2042\nvalue = [1673, 873, 639, 0, 1]", fillcolor="#f6d3bb"] ;
4 -> 5 ;
6 [label="src_bytes <= 5.5\ngini = 0.466\nsamples = 1483\nvalue = [1567, 134, 603, 0, 1]", fillcolor="#f0b88f"] ;
5 -> 6 ;
7 [label="rerror_rate <= 0.875\ngini = 0.555\nsamples = 982\nvalue = [815, 115, 573, 0, 1]", fillcolor="#f8decc"] ;
6 -> 7 ;
8 [label="serror_rate <= 0.75\ngini = 0.607\nsamples = 226\nvalue = [181, 111, 58, 0, 1]", fillcolor="#f7dac5"] ;
7 -> 8 ;
9 [label="dst_host_same_srv_rate <= 0.185\ngini = 0.414\nsamples = 127\nvalue = [145, 0, 58, 0, 1]", fillcolor="#f0b489"] ;
8 -> 9 ;
10 [label="last_flag <= 19.0\ngini = 0.195\nsamples = 42\nvalue = [7, 0, 57, 0, 0]", fillcolor="#51e8cc"] ;
9 -> 10 ;
11 [label="flag_SF <= 0.5\ngini = 0.095\nsamples = 39\nvalue = [3, 0, 57, 0, 0]", fillcolor="#43e6c8"] ;
10 -> 11 ;
12 [label="dst_host_count <= 134.5\ngini = 0.375\nsamples = 3\nvalue = [3, 0, 1, 0, 0]", fillcolor="#eeab7b"] ;
11 -> 12 ;
13 [label="gini = 0.0\nsamples = 1\nvalue = [0, 0, 1, 0, 0]", fillcolor="#39e5c5"] ;
12 -> 13 ;
14 [label="gini = 0.0\nsamples = 2\nvalue = [3, 0, 0, 0, 0]", fillcolor="#e58139"] ;
12 -> 14 ;
15 [label="gini = 0.0\nsamples = 36\nvalue = [0, 0, 56, 0, 0]", fillcolor="#39e5c5"] ;
11 -> 15 ;
16 [label="gini = 0.0\nsamples = 3\nvalue = [4, 0, 0, 0, 0]", fillcolor="#e58139"] ;
10 -> 16 ;
17 [label="protocol_type_udp <= 0.5\ngini = 0.028\nsamples = 85\nvalue = [138, 0, 1, 0, 1]", fillcolor="#e5833c"] ;
9 -> 17 ;
18 [label="last_flag <= 5.0\ngini = 0.014\nsamples = 84\nvalue = [138, 0, 1, 0, 0]", fillcolor="#e5823a"] ;
17 -> 18 ;
19 [label="gini = 0.0\nsamples = 1\nvalue = [0, 0, 1, 0, 0]", fillcolor="#39e5c5"] ;
18 -> 19 ;
20 [label="gini = 0.0\nsamples = 83\nvalue = [138, 0, 0, 0, 0]", fillcolor="#e58139"] ;
18 -> 20 ;
21 [label="gini = 0.0\nsamples = 1\nvalue = [0, 0, 0, 0, 1]", fillcolor="#e539c0"] ;
17 -> 21 ;
22 [label="dst_host_same_src_port_rate <= 0.005\ngini = 0.37\nsamples = 99\nvalue = [36, 111, 0, 0, 0]", fillcolor="#a6ed79"] ;
8 -> 22 ;
23 [label="dst_host_srv_count <= 3.5\ngini = 0.092\nsamples = 57\nvalue = [4, 79, 0, 0, 0]", fillcolor="#82e643"] ;
22 -> 23 ;
24 [label="dst_host_diff_srv_rate <= 0.06\ngini = 0.305\nsamples = 14\nvalue = [3, 13, 0, 0, 0]", fillcolor="#99eb67"] ;
23 -> 24 ;
25 [label="gini = 0.0\nsamples = 2\nvalue = [2, 0, 0, 0, 0]", fillcolor="#e58139"] ;
24 -> 25 ;
26 [label="dst_host_count <= 254.0\ngini = 0.133\nsamples = 12\nvalue = [1, 13, 0, 0, 0]", fillcolor="#85e748"] ;
24 -> 26 ;
27 [label="gini = 0.0\nsamples = 1\nvalue = [1, 0, 0, 0, 0]", fillcolor="#e58139"] ;
26 -> 27 ;
28 [label="gini = 0.0\nsamples = 11\nvalue = [0, 13, 0, 0, 0]", fillcolor="#7be539"] ;
26 -> 28 ;
29 [label="dst_host_srv_count <= 19.5\ngini = 0.029\nsamples = 43\nvalue = [1, 66, 0, 0, 0]", fillcolor="#7de53c"] ;
23 -> 29 ;
30 [label="dst_host_count <= 253.5\ngini = 0.105\nsamples = 12\nvalue = [1, 17, 0, 0, 0]", fillcolor="#83e745"] ;
29 -> 30 ;
31 [label="gini = 0.0\nsamples = 1\nvalue = [1, 0, 0, 0, 0]", fillcolor="#e58139"] ;
30 -> 31 ;
32 [label="gini = 0.0\nsamples = 11\nvalue = [0, 17, 0, 0, 0]", fillcolor="#7be539"] ;
30 -> 32 ;
33 [label="gini = 0.0\nsamples = 31\nvalue = [0, 49, 0, 0, 0]", fillcolor="#7be539"] ;
29 -> 33 ;
34 [label="dst_host_srv_count <= 140.5\ngini = 0.5\nsamples = 42\nvalue = [32, 32, 0, 0, 0]", fillcolor="#ffffff"] ;
22 -> 34 ;
35 [label="dst_host_srv_diff_host_rate <= 0.09\ngini = 0.473\nsamples = 35\nvalue = [20, 32, 0, 0, 0]", fillcolor="#cef5b5"] ;
34 -> 35 ;
36 [label="last_flag <= 9.0\ngini = 0.44\nsamples = 30\nvalue = [15, 31, 0, 0, 0]", fillcolor="#bbf299"] ;
35 -> 36 ;
37 [label="gini = 0.0\nsamples = 7\nvalue = [11, 0, 0, 0, 0]", fillcolor="#e58139"] ;
36 -> 37 ;
38 [label="count <= 1.5\ngini = 0.202\nsamples = 23\nvalue = [4, 31, 0, 0, 0]", fillcolor="#8ce853"] ;
36 -> 38 ;
39 [label="dst_host_srv_count <= 37.5\ngini = 0.463\nsamples = 8\nvalue = [4, 7, 0, 0, 0]", fillcolor="#c6f4aa"] ;
38 -> 39 ;
40 [label="dst_host_count <= 12.0\ngini = 0.375\nsamples = 3\nvalue = [3, 1, 0, 0, 0]", fillcolor="#eeab7b"] ;
39 -> 40 ;
41 [label="gini = 0.0\nsamples = 1\nvalue = [0, 1, 0, 0, 0]", fillcolor="#7be539"] ;
40 -> 41 ;
42 [label="gini = 0.0\nsamples = 2\nvalue = [3, 0, 0, 0, 0]", fillcolor="#e58139"] ;
40 -> 42 ;
43 [label="dst_host_srv_diff_host_rate <= 0.015\ngini = 0.245\nsamples = 5\nvalue = [1, 6, 0, 0, 0]", fillcolor="#91e95a"] ;
39 -> 43 ;
44 [label="gini = 0.0\nsamples = 4\nvalue = [0, 6, 0, 0, 0]", fillcolor="#7be539"] ;
43 -> 44 ;
45 [label="gini = 0.0\nsamples = 1\nvalue = [1, 0, 0, 0, 0]", fillcolor="#e58139"] ;
43 -> 45 ;
46 [label="gini = 0.0\nsamples = 15\nvalue = [0, 24, 0, 0, 0]", fillcolor="#7be539"] ;
38 -> 46 ;
47 [label="dst_host_same_srv_rate <= 0.51\ngini = 0.278\nsamples = 5\nvalue = [5, 1, 0, 0, 0]", fillcolor="#ea9a61"] ;
35 -> 47 ;
48 [label="gini = 0.0\nsamples = 1\nvalue = [0, 1, 0, 0, 0]", fillcolor="#7be539"] ;
47 -> 48 ;
49 [label="gini = 0.0\nsamples = 4\nvalue = [5, 0, 0, 0, 0]", fillcolor="#e58139"] ;
47 -> 49 ;
50 [label="gini = 0.0\nsamples = 7\nvalue = [12, 0, 0, 0, 0]", fillcolor="#e58139"] ;
34 -> 50 ;
51 [label="dst_host_diff_srv_rate <= 0.075\ngini = 0.498\nsamples = 756\nvalue = [634, 4, 515, 0, 0]", fillcolor="#fae7da"] ;
7 -> 51 ;
52 [label="dst_host_srv_count <= 2.5\ngini = 0.076\nsamples = 401\nvalue = [587, 4, 20, 0, 0]", fillcolor="#e68641"] ;
51 -> 52 ;
53 [label="service_private <= 0.5\ngini = 0.508\nsamples = 24\nvalue = [10, 2, 20, 0, 0]", fillcolor="#a5f3e5"] ;
52 -> 53 ;
54 [label="src_bytes <= 0.5\ngini = 0.408\nsamples = 10\nvalue = [10, 0, 4, 0, 0]", fillcolor="#efb388"] ;
53 -> 54 ;
55 [label="last_flag <= 12.0\ngini = 0.444\nsamples = 8\nvalue = [8, 0, 4, 0, 0]", fillcolor="#f2c09c"] ;
54 -> 55 ;
56 [label="gini = 0.0\nsamples = 4\nvalue = [6, 0, 0, 0, 0]", fillcolor="#e58139"] ;
55 -> 56 ;
57 [label="dst_host_srv_count <= 1.5\ngini = 0.444\nsamples = 4\nvalue = [2, 0, 4, 0, 0]", fillcolor="#9cf2e2"] ;
55 -> 57 ;
58 [label="gini = 0.0\nsamples = 3\nvalue = [0, 0, 4, 0, 0]", fillcolor="#39e5c5"] ;
57 -> 58 ;
59 [label="gini = 0.0\nsamples = 1\nvalue = [2, 0, 0, 0, 0]", fillcolor="#e58139"] ;
57 -> 59 ;
60 [label="gini = 0.0\nsamples = 2\nvalue = [2, 0, 0, 0, 0]", fillcolor="#e58139"] ;
54 -> 60 ;
61 [label="srv_count <= 1.5\ngini = 0.198\nsamples = 14\nvalue = [0, 2, 16, 0, 0]", fillcolor="#52e8cc"] ;
53 -> 61 ;
62 [label="dst_host_same_srv_rate <= 0.005\ngini = 0.153\nsamples = 9\nvalue = [0, 1, 11, 0, 0]", fillcolor="#4be7ca"] ;
61 -> 62 ;
63 [label="last_flag <= 16.5\ngini = 0.32\nsamples = 4\nvalue = [0, 1, 4, 0, 0]", fillcolor="#6aecd4"] ;
62 -> 63 ;
64 [label="gini = 0.0\nsamples = 2\nvalue = [0, 0, 3, 0, 0]", fillcolor="#39e5c5"] ;
63 -> 64 ;
65 [label="dst_host_diff_srv_rate <= 0.065\ngini = 0.5\nsamples = 2\nvalue = [0, 1, 1, 0, 0]", fillcolor="#ffffff"] ;
63 -> 65 ;
66 [label="gini = 0.0\nsamples = 1\nvalue = [0, 1, 0, 0, 0]", fillcolor="#7be539"] ;
65 -> 66 ;
67 [label="gini = 0.0\nsamples = 1\nvalue = [0, 0, 1, 0, 0]", fillcolor="#39e5c5"] ;
65 -> 67 ;
68 [label="gini = 0.0\nsamples = 5\nvalue = [0, 0, 7, 0, 0]", fillcolor="#39e5c5"] ;
62 -> 68 ;
69 [label="dst_host_same_srv_rate <= 0.015\ngini = 0.278\nsamples = 5\nvalue = [0, 1, 5, 0, 0]", fillcolor="#61ead1"] ;
61 -> 69 ;
70 [label="dst_host_same_src_port_rate <= 0.005\ngini = 0.5\nsamples = 2\nvalue = [0, 1, 1, 0, 0]", fillcolor="#ffffff"] ;
69 -> 70 ;
71 [label="gini = 0.0\nsamples = 1\nvalue = [0, 1, 0, 0, 0]", fillcolor="#7be539"] ;
70 -> 71 ;
72 [label="gini = 0.0\nsamples = 1\nvalue = [0, 0, 1, 0, 0]", fillcolor="#39e5c5"] ;
70 -> 72 ;
73 [label="gini = 0.0\nsamples = 3\nvalue = [0, 0, 4, 0, 0]", fillcolor="#39e5c5"] ;
69 -> 73 ;
74 [label="count <= 3.5\ngini = 0.007\nsamples = 377\nvalue = [577, 2, 0, 0, 0]", fillcolor="#e5813a"] ;
52 -> 74 ;
75 [label="dst_host_diff_srv_rate <= 0.045\ngini = 0.003\nsamples = 376\nvalue = [577, 1, 0, 0, 0]", fillcolor="#e58139"] ;
74 -> 75 ;
76 [label="gini = 0.0\nsamples = 362\nvalue = [558, 0, 0, 0, 0]", fillcolor="#e58139"] ;
75 -> 76 ;
77 [label="last_flag <= 17.5\ngini = 0.095\nsamples = 14\nvalue = [19, 1, 0, 0, 0]", fillcolor="#e68843"] ;
75 -> 77 ;
78 [label="gini = 0.0\nsamples = 10\nvalue = [14, 0, 0, 0, 0]", fillcolor="#e58139"] ;
77 -> 78 ;
79 [label="count <= 2.0\ngini = 0.278\nsamples = 4\nvalue = [5, 1, 0, 0, 0]", fillcolor="#ea9a61"] ;
77 -> 79 ;
80 [label="gini = 0.0\nsamples = 3\nvalue = [5, 0, 0, 0, 0]", fillcolor="#e58139"] ;
79 -> 80 ;
81 [label="gini = 0.0\nsamples = 1\nvalue = [0, 1, 0, 0, 0]", fillcolor="#7be539"] ;
79 -> 81 ;
82 [label="gini = 0.0\nsamples = 1\nvalue = [0, 1, 0, 0, 0]", fillcolor="#7be539"] ;
74 -> 82 ;
83 [label="service_private <= 0.5\ngini = 0.158\nsamples = 355\nvalue = [47, 0, 495, 0, 0]", fillcolor="#4ce7cb"] ;
51 -> 83 ;
84 [label="src_bytes <= 0.5\ngini = 0.402\nsamples = 107\nvalue = [46, 0, 119, 0, 0]", fillcolor="#86efdb"] ;
83 -> 84 ;
85 [label="srv_count <= 1.5\ngini = 0.421\nsamples = 99\nvalue = [46, 0, 107, 0, 0]", fillcolor="#8ef0de"] ;
84 -> 85 ;
86 [label="dst_host_count <= 37.0\ngini = 0.389\nsamples = 93\nvalue = [38, 0, 106, 0, 0]", fillcolor="#80eeda"] ;
85 -> 86 ;
87 [label="dst_bytes <= 2.0\ngini = 0.399\nsamples = 24\nvalue = [29, 0, 11, 0, 0]", fillcolor="#efb184"] ;
86 -> 87 ;
88 [label="dst_host_same_srv_rate <= 0.055\ngini = 0.284\nsamples = 21\nvalue = [29, 0, 6, 0, 0]", fillcolor="#ea9b62"] ;
87 -> 88 ;
89 [label="dst_host_same_srv_rate <= 0.035\ngini = 0.375\nsamples = 4\nvalue = [2, 0, 6, 0, 0]", fillcolor="#7beed8"] ;
88 -> 89 ;
90 [label="gini = 0.0\nsamples = 1\nvalue = [2, 0, 0, 0, 0]", fillcolor="#e58139"] ;
89 -> 90 ;
91 [label="gini = 0.0\nsamples = 3\nvalue = [0, 0, 6, 0, 0]", fillcolor="#39e5c5"] ;
89 -> 91 ;
92 [label="gini = 0.0\nsamples = 17\nvalue = [27, 0, 0, 0, 0]", fillcolor="#e58139"] ;
88 -> 92 ;
93 [label="gini = 0.0\nsamples = 3\nvalue = [0, 0, 5, 0, 0]", fillcolor="#39e5c5"] ;
87 -> 93 ;
94 [label="dst_host_same_srv_rate <= 0.685\ngini = 0.158\nsamples = 69\nvalue = [9, 0, 95, 0, 0]", fillcolor="#4ce7ca"] ;
86 -> 94 ;
95 [label="dst_host_diff_srv_rate <= 0.085\ngini = 0.128\nsamples = 68\nvalue = [7, 0, 95, 0, 0]", fillcolor="#48e7c9"] ;
94 -> 95 ;
96 [label="gini = 0.0\nsamples = 1\nvalue = [2, 0, 0, 0, 0]", fillcolor="#e58139"] ;
95 -> 96 ;
97 [label="dst_host_diff_srv_rate <= 0.13\ngini = 0.095\nsamples = 67\nvalue = [5, 0, 95, 0, 0]", fillcolor="#43e6c8"] ;
95 -> 97 ;
98 [label="dst_host_same_src_port_rate <= 0.03\ngini = 0.42\nsamples = 7\nvalue = [3, 0, 7, 0, 0]", fillcolor="#8ef0de"] ;
97 -> 98 ;
99 [label="gini = 0.0\nsamples = 3\nvalue = [3, 0, 0, 0, 0]", fillcolor="#e58139"] ;
98 -> 99 ;
100 [label="gini = 0.0\nsamples = 4\nvalue = [0, 0, 7, 0, 0]", fillcolor="#39e5c5"] ;
98 -> 100 ;
101 [label="last_flag <= 9.0\ngini = 0.043\nsamples = 60\nvalue = [2, 0, 88, 0, 0]", fillcolor="#3de6c6"] ;
97 -> 101 ;
102 [label="dst_host_same_src_port_rate <= 0.06\ngini = 0.26\nsamples = 9\nvalue = [2, 0, 11, 0, 0]", fillcolor="#5dead0"] ;
101 -> 102 ;
103 [label="gini = 0.0\nsamples = 2\nvalue = [2, 0, 0, 0, 0]", fillcolor="#e58139"] ;
102 -> 103 ;
104 [label="gini = 0.0\nsamples = 7\nvalue = [0, 0, 11, 0, 0]", fillcolor="#39e5c5"] ;
102 -> 104 ;
105 [label="gini = 0.0\nsamples = 51\nvalue = [0, 0, 77, 0, 0]", fillcolor="#39e5c5"] ;
101 -> 105 ;
106 [label="gini = 0.0\nsamples = 1\nvalue = [2, 0, 0, 0, 0]", fillcolor="#e58139"] ;
94 -> 106 ;
107 [label="dst_host_same_srv_rate <= 0.075\ngini = 0.198\nsamples = 6\nvalue = [8, 0, 1, 0, 0]", fillcolor="#e89152"] ;
85 -> 107 ;
108 [label="gini = 0.0\nsamples = 1\nvalue = [0, 0, 1, 0, 0]", fillcolor="#39e5c5"] ;
107 -> 108 ;
109 [label="gini = 0.0\nsamples = 5\nvalue = [8, 0, 0, 0, 0]", fillcolor="#e58139"] ;
107 -> 109 ;
110 [label="gini = 0.0\nsamples = 8\nvalue = [0, 0, 12, 0, 0]", fillcolor="#39e5c5"] ;
84 -> 110 ;
111 [label="srv_count <= 1.5\ngini = 0.005\nsamples = 248\nvalue = [1, 0, 376, 0, 0]", fillcolor="#3ae5c5"] ;
83 -> 111 ;
112 [label="dst_host_same_src_port_rate <= 0.495\ngini = 0.006\nsamples = 220\nvalue = [1, 0, 335, 0, 0]", fillcolor="#3ae5c5"] ;
111 -> 112 ;
113 [label="gini = 0.0\nsamples = 208\nvalue = [0, 0, 321, 0, 0]", fillcolor="#39e5c5"] ;
112 -> 113 ;
114 [label="last_flag <= 12.0\ngini = 0.124\nsamples = 12\nvalue = [1, 0, 14, 0, 0]", fillcolor="#47e7c9"] ;
112 -> 114 ;
115 [label="gini = 0.0\nsamples = 1\nvalue = [1, 0, 0, 0, 0]", fillcolor="#e58139"] ;
114 -> 115 ;
116 [label="gini = 0.0\nsamples = 11\nvalue = [0, 0, 14, 0, 0]", fillcolor="#39e5c5"] ;
114 -> 116 ;
117 [label="gini = 0.0\nsamples = 28\nvalue = [0, 0, 41, 0, 0]", fillcolor="#39e5c5"] ;
111 -> 117 ;
118 [label="last_flag <= 7.5\ngini = 0.117\nsamples = 501\nvalue = [752, 19, 30, 0, 0]", fillcolor="#e78946"] ;
6 -> 118 ;
119 [label="gini = 0.0\nsamples = 16\nvalue = [0, 0, 27, 0, 0]", fillcolor="#39e5c5"] ;
118 -> 119 ;
120 [label="service_private <= 0.5\ngini = 0.055\nsamples = 485\nvalue = [752, 19, 3, 0, 0]", fillcolor="#e6853f"] ;
118 -> 120 ;
121 [label="protocol_type_icmp <= 0.5\ngini = 0.008\nsamples = 469\nvalue = [752, 0, 3, 0, 0]", fillcolor="#e5823a"] ;
120 -> 121 ;
122 [label="gini = 0.0\nsamples = 468\nvalue = [752, 0, 0, 0, 0]", fillcolor="#e58139"] ;
121 -> 122 ;
123 [label="gini = 0.0\nsamples = 1\nvalue = [0, 0, 3, 0, 0]", fillcolor="#39e5c5"] ;
121 -> 123 ;
124 [label="gini = 0.0\nsamples = 16\nvalue = [0, 19, 0, 0, 0]", fillcolor="#7be539"] ;
120 -> 124 ;
125 [label="dst_host_srv_count <= 150.5\ngini = 0.28\nsamples = 559\nvalue = [106, 739, 36, 0, 0]", fillcolor="#93ea5d"] ;
5 -> 125 ;
126 [label="src_bytes <= 27.0\ngini = 0.175\nsamples = 518\nvalue = [43, 739, 34, 0, 0]", fillcolor="#88e84d"] ;
125 -> 126 ;
127 [label="protocol_type_tcp <= 0.5\ngini = 0.414\nsamples = 188\nvalue = [42, 220, 34, 0, 0]", fillcolor="#a2ed74"] ;
126 -> 127 ;
128 [label="gini = 0.0\nsamples = 21\nvalue = [0, 0, 33, 0, 0]", fillcolor="#39e5c5"] ;
127 -> 128 ;
129 [label="dst_bytes <= 19.5\ngini = 0.275\nsamples = 167\nvalue = [42, 220, 1, 0, 0]", fillcolor="#95ea60"] ;
127 -> 129 ;
130 [label="dst_host_srv_diff_host_rate <= 0.145\ngini = 0.19\nsamples = 157\nvalue = [25, 220, 1, 0, 0]", fillcolor="#8be850"] ;
129 -> 130 ;
131 [label="count <= 2.5\ngini = 0.071\nsamples = 140\nvalue = [7, 209, 1, 0, 0]", fillcolor="#80e641"] ;
130 -> 131 ;
132 [label="dst_host_same_src_port_rate <= 0.21\ngini = 0.219\nsamples = 5\nvalue = [7, 0, 1, 0, 0]", fillcolor="#e99355"] ;
131 -> 132 ;
133 [label="gini = 0.0\nsamples = 4\nvalue = [7, 0, 0, 0, 0]", fillcolor="#e58139"] ;
132 -> 133 ;
134 [label="gini = 0.0\nsamples = 1\nvalue = [0, 0, 1, 0, 0]", fillcolor="#39e5c5"] ;
132 -> 134 ;
135 [label="gini = 0.0\nsamples = 135\nvalue = [0, 209, 0, 0, 0]", fillcolor="#7be539"] ;
131 -> 135 ;
136 [label="dst_host_count <= 47.0\ngini = 0.471\nsamples = 17\nvalue = [18, 11, 0, 0, 0]", fillcolor="#f5ceb2"] ;
130 -> 136 ;
137 [label="gini = 0.0\nsamples = 11\nvalue = [18, 0, 0, 0, 0]", fillcolor="#e58139"] ;
136 -> 137 ;
138 [label="gini = 0.0\nsamples = 6\nvalue = [0, 11, 0, 0, 0]", fillcolor="#7be539"] ;
136 -> 138 ;
139 [label="gini = 0.0\nsamples = 10\nvalue = [17, 0, 0, 0, 0]", fillcolor="#e58139"] ;
129 -> 139 ;
140 [label="dst_bytes <= 54.5\ngini = 0.004\nsamples = 330\nvalue = [1, 519, 0, 0, 0]", fillcolor="#7be539"] ;
126 -> 140 ;
141 [label="gini = 0.0\nsamples = 329\nvalue = [0, 519, 0, 0, 0]", fillcolor="#7be539"] ;
140 -> 141 ;
142 [label="gini = 0.0\nsamples = 1\nvalue = [1, 0, 0, 0, 0]", fillcolor="#e58139"] ;
140 -> 142 ;
143 [label="dst_host_diff_srv_rate <= 0.5\ngini = 0.06\nsamples = 41\nvalue = [63, 0, 2, 0, 0]", fillcolor="#e6853f"] ;
125 -> 143 ;
144 [label="gini = 0.0\nsamples = 40\nvalue = [63, 0, 0, 0, 0]", fillcolor="#e58139"] ;
143 -> 144 ;
145 [label="gini = 0.0\nsamples = 1\nvalue = [0, 0, 2, 0, 0]", fillcolor="#39e5c5"] ;
143 -> 145 ;
146 [label="src_bytes <= 27.0\ngini = 0.184\nsamples = 1659\nvalue = [163, 71, 2333, 20, 3]", fillcolor="#4ee8cb"] ;
4 -> 146 ;
147 [label="dst_host_diff_srv_rate <= 0.335\ngini = 0.143\nsamples = 1622\nvalue = [163, 7, 2333, 20, 3]", fillcolor="#49e7ca"] ;
146 -> 147 ;
148 [label="rerror_rate <= 0.5\ngini = 0.286\nsamples = 735\nvalue = [162, 7, 955, 20, 3]", fillcolor="#60ead0"] ;
147 -> 148 ;
149 [label="dst_host_srv_count <= 16.5\ngini = 0.187\nsamples = 665\nvalue = [75, 7, 929, 20, 3]", fillcolor="#4fe8cb"] ;
148 -> 149 ;
150 [label="protocol_type_icmp <= 0.5\ngini = 0.485\nsamples = 125\nvalue = [34, 7, 140, 20, 2]", fillcolor="#83efdb"] ;
149 -> 150 ;
151 [label="protocol_type_tcp <= 0.5\ngini = 0.714\nsamples = 57\nvalue = [30, 7, 31, 20, 2]", fillcolor="#fcfffe"] ;
150 -> 151 ;
152 [label="gini = 0.0\nsamples = 22\nvalue = [0, 0, 31, 0, 0]", fillcolor="#39e5c5"] ;
151 -> 152 ;
153 [label="serror_rate <= 0.835\ngini = 0.611\nsamples = 35\nvalue = [30, 7, 0, 20, 2]", fillcolor="#f8dfcc"] ;
151 -> 153 ;
154 [label="serror_rate <= 0.335\ngini = 0.528\nsamples = 28\nvalue = [27, 0, 0, 20, 2]", fillcolor="#f9e1cf"] ;
153 -> 154 ;
155 [label="dst_bytes <= 566.0\ngini = 0.517\nsamples = 26\nvalue = [27, 0, 0, 17, 2]", fillcolor="#f6d4bb"] ;
154 -> 155 ;
156 [label="gini = 0.0\nsamples = 16\nvalue = [27, 0, 0, 0, 0]", fillcolor="#e58139"] ;
155 -> 156 ;
157 [label="srv_count <= 1.5\ngini = 0.188\nsamples = 10\nvalue = [0, 0, 0, 17, 2]", fillcolor="#5350e8"] ;
155 -> 157 ;
158 [label="gini = 0.0\nsamples = 6\nvalue = [0, 0, 0, 11, 0]", fillcolor="#3c39e5"] ;
157 -> 158 ;
159 [label="dst_bytes <= 1460.0\ngini = 0.375\nsamples = 4\nvalue = [0, 0, 0, 6, 2]", fillcolor="#7d7bee"] ;
157 -> 159 ;
160 [label="gini = 0.0\nsamples = 1\nvalue = [0, 0, 0, 3, 0]", fillcolor="#3c39e5"] ;
159 -> 160 ;
161 [label="srv_count <= 2.5\ngini = 0.48\nsamples = 3\nvalue = [0, 0, 0, 3, 2]", fillcolor="#bebdf6"] ;
159 -> 161 ;
162 [label="gini = 0.0\nsamples = 1\nvalue = [0, 0, 0, 0, 1]", fillcolor="#e539c0"] ;
161 -> 162 ;
163 [label="logged_in <= 0.5\ngini = 0.375\nsamples = 2\nvalue = [0, 0, 0, 3, 1]", fillcolor="#7d7bee"] ;
161 -> 163 ;
164 [label="gini = 0.0\nsamples = 1\nvalue = [0, 0, 0, 3, 0]", fillcolor="#3c39e5"] ;
163 -> 164 ;
165 [label="gini = 0.0\nsamples = 1\nvalue = [0, 0, 0, 0, 1]", fillcolor="#e539c0"] ;
163 -> 165 ;
166 [label="gini = 0.0\nsamples = 2\nvalue = [0, 0, 0, 3, 0]", fillcolor="#3c39e5"] ;
154 -> 166 ;
167 [label="dst_host_srv_count <= 9.5\ngini = 0.42\nsamples = 7\nvalue = [3, 7, 0, 0, 0]", fillcolor="#b4f08e"] ;
153 -> 167 ;
168 [label="last_flag <= 8.0\ngini = 0.219\nsamples = 6\nvalue = [1, 7, 0, 0, 0]", fillcolor="#8ee955"] ;
167 -> 168 ;
169 [label="gini = 0.0\nsamples = 1\nvalue = [1, 0, 0, 0, 0]", fillcolor="#e58139"] ;
168 -> 169 ;
170 [label="gini = 0.0\nsamples = 5\nvalue = [0, 7, 0, 0, 0]", fillcolor="#7be539"] ;
168 -> 170 ;
171 [label="gini = 0.0\nsamples = 1\nvalue = [2, 0, 0, 0, 0]", fillcolor="#e58139"] ;
167 -> 171 ;
172 [label="dst_host_srv_count <= 1.5\ngini = 0.068\nsamples = 68\nvalue = [4, 0, 109, 0, 0]", fillcolor="#40e6c7"] ;
150 -> 172 ;
173 [label="src_bytes <= 19.0\ngini = 0.252\nsamples = 12\nvalue = [4, 0, 23, 0, 0]", fillcolor="#5beacf"] ;
172 -> 173 ;
174 [label="gini = 0.0\nsamples = 11\nvalue = [0, 0, 23, 0, 0]", fillcolor="#39e5c5"] ;
173 -> 174 ;
175 [label="gini = 0.0\nsamples = 1\nvalue = [4, 0, 0, 0, 0]", fillcolor="#e58139"] ;
173 -> 175 ;
176 [label="gini = 0.0\nsamples = 56\nvalue = [0, 0, 86, 0, 0]", fillcolor="#39e5c5"] ;
172 -> 176 ;
177 [label="logged_in <= 0.5\ngini = 0.096\nsamples = 540\nvalue = [41, 0, 789, 0, 1]", fillcolor="#44e6c8"] ;
149 -> 177 ;
178 [label="src_bytes <= 18.5\ngini = 0.02\nsamples = 517\nvalue = [8, 0, 789, 0, 0]", fillcolor="#3be5c6"] ;
177 -> 178 ;
179 [label="protocol_type_tcp <= 0.5\ngini = 0.013\nsamples = 515\nvalue = [5, 0, 789, 0, 0]", fillcolor="#3ae5c5"] ;
178 -> 179 ;
180 [label="gini = 0.0\nsamples = 511\nvalue = [0, 0, 789, 0, 0]", fillcolor="#39e5c5"] ;
179 -> 180 ;
181 [label="gini = 0.0\nsamples = 4\nvalue = [5, 0, 0, 0, 0]", fillcolor="#e58139"] ;
179 -> 181 ;
182 [label="gini = 0.0\nsamples = 2\nvalue = [3, 0, 0, 0, 0]", fillcolor="#e58139"] ;
178 -> 182 ;
183 [label="dst_host_same_srv_rate <= 0.94\ngini = 0.057\nsamples = 23\nvalue = [33, 0, 0, 0, 1]", fillcolor="#e6853f"] ;
177 -> 183 ;
184 [label="gini = 0.0\nsamples = 17\nvalue = [27, 0, 0, 0, 0]", fillcolor="#e58139"] ;
183 -> 184 ;
185 [label="count <= 1.5\ngini = 0.245\nsamples = 6\nvalue = [6, 0, 0, 0, 1]", fillcolor="#e9965a"] ;
183 -> 185 ;
186 [label="src_bytes <= 5.5\ngini = 0.278\nsamples = 5\nvalue = [5, 0, 0, 0, 1]", fillcolor="#ea9a61"] ;
185 -> 186 ;
187 [label="dst_host_srv_diff_host_rate <= 0.075\ngini = 0.32\nsamples = 4\nvalue = [4, 0, 0, 0, 1]", fillcolor="#eca06a"] ;
186 -> 187 ;
188 [label="gini = 0.0\nsamples = 3\nvalue = [4, 0, 0, 0, 0]", fillcolor="#e58139"] ;
187 -> 188 ;
189 [label="gini = 0.0\nsamples = 1\nvalue = [0, 0, 0, 0, 1]", fillcolor="#e539c0"] ;
187 -> 189 ;
190 [label="gini = 0.0\nsamples = 1\nvalue = [1, 0, 0, 0, 0]", fillcolor="#e58139"] ;
186 -> 190 ;
191 [label="gini = 0.0\nsamples = 1\nvalue = [1, 0, 0, 0, 0]", fillcolor="#e58139"] ;
185 -> 191 ;
192 [label="last_flag <= 19.0\ngini = 0.354\nsamples = 70\nvalue = [87, 0, 26, 0, 0]", fillcolor="#eda774"] ;
148 -> 192 ;
193 [label="dst_host_same_src_port_rate <= 0.825\ngini = 0.071\nsamples = 19\nvalue = [1, 0, 26, 0, 0]", fillcolor="#41e6c7"] ;
192 -> 193 ;
194 [label="gini = 0.0\nsamples = 13\nvalue = [0, 0, 19, 0, 0]", fillcolor="#39e5c5"] ;
193 -> 194 ;
195 [label="last_flag <= 10.5\ngini = 0.219\nsamples = 6\nvalue = [1, 0, 7, 0, 0]", fillcolor="#55e9cd"] ;
193 -> 195 ;
196 [label="gini = 0.0\nsamples = 5\nvalue = [0, 0, 7, 0, 0]", fillcolor="#39e5c5"] ;
195 -> 196 ;
197 [label="gini = 0.0\nsamples = 1\nvalue = [1, 0, 0, 0, 0]", fillcolor="#e58139"] ;
195 -> 197 ;
198 [label="gini = 0.0\nsamples = 51\nvalue = [86, 0, 0, 0, 0]", fillcolor="#e58139"] ;
192 -> 198 ;
199 [label="dst_host_same_srv_rate <= 0.735\ngini = 0.001\nsamples = 887\nvalue = [1, 0, 1378, 0, 0]", fillcolor="#39e5c5"] ;
147 -> 199 ;
200 [label="gini = 0.0\nsamples = 886\nvalue = [0, 0, 1378, 0, 0]", fillcolor="#39e5c5"] ;
199 -> 200 ;
201 [label="gini = 0.0\nsamples = 1\nvalue = [1, 0, 0, 0, 0]", fillcolor="#e58139"] ;
199 -> 201 ;
202 [label="gini = 0.0\nsamples = 37\nvalue = [0, 64, 0, 0, 0]", fillcolor="#7be539"] ;
146 -> 202 ;
203 [label="last_flag <= 18.5\ngini = 0.069\nsamples = 1418\nvalue = [73, 6, 2133, 0, 0]", fillcolor="#40e6c7"] ;
3 -> 203 ;
204 [label="protocol_type_icmp <= 0.5\ngini = 0.03\nsamples = 1389\nvalue = [33, 0, 2133, 0, 0]", fillcolor="#3ce5c6"] ;
203 -> 204 ;
205 [label="dst_host_count <= 1.5\ngini = 0.231\nsamples = 159\nvalue = [33, 0, 215, 0, 0]", fillcolor="#57e9ce"] ;
204 -> 205 ;
206 [label="gini = 0.0\nsamples = 10\nvalue = [14, 0, 0, 0, 0]", fillcolor="#e58139"] ;
205 -> 206 ;
207 [label="dst_host_srv_count <= 2.5\ngini = 0.149\nsamples = 149\nvalue = [19, 0, 215, 0, 0]", fillcolor="#4ae7ca"] ;
205 -> 207 ;
208 [label="dst_host_count <= 149.0\ngini = 0.045\nsamples = 137\nvalue = [5, 0, 210, 0, 0]", fillcolor="#3ee6c6"] ;
207 -> 208 ;
209 [label="logged_in <= 0.5\ngini = 0.028\nsamples = 136\nvalue = [3, 0, 210, 0, 0]", fillcolor="#3ce5c6"] ;
208 -> 209 ;
210 [label="service_http <= 0.5\ngini = 0.028\nsamples = 134\nvalue = [3, 0, 208, 0, 0]", fillcolor="#3ce5c6"] ;
209 -> 210 ;
211 [label="dst_host_count <= 52.5\ngini = 0.029\nsamples = 131\nvalue = [3, 0, 202, 0, 0]", fillcolor="#3ce5c6"] ;
210 -> 211 ;
212 [label="service_private <= 0.5\ngini = 0.012\nsamples = 100\nvalue = [1, 0, 158, 0, 0]", fillcolor="#3ae5c5"] ;
211 -> 212 ;
213 [label="dst_host_diff_srv_rate <= 0.555\ngini = 0.054\nsamples = 24\nvalue = [1, 0, 35, 0, 0]", fillcolor="#3fe6c7"] ;
212 -> 213 ;
214 [label="gini = 0.0\nsamples = 1\nvalue = [1, 0, 0, 0, 0]", fillcolor="#e58139"] ;
213 -> 214 ;
215 [label="gini = 0.0\nsamples = 23\nvalue = [0, 0, 35, 0, 0]", fillcolor="#39e5c5"] ;
213 -> 215 ;
216 [label="gini = 0.0\nsamples = 76\nvalue = [0, 0, 123, 0, 0]", fillcolor="#39e5c5"] ;
212 -> 216 ;
217 [label="last_flag <= 12.5\ngini = 0.083\nsamples = 31\nvalue = [2, 0, 44, 0, 0]", fillcolor="#42e6c8"] ;
211 -> 217 ;
218 [label="gini = 0.0\nsamples = 1\nvalue = [2, 0, 0, 0, 0]", fillcolor="#e58139"] ;
217 -> 218 ;
219 [label="gini = 0.0\nsamples = 30\nvalue = [0, 0, 44, 0, 0]", fillcolor="#39e5c5"] ;
217 -> 219 ;
220 [label="gini = 0.0\nsamples = 3\nvalue = [0, 0, 6, 0, 0]", fillcolor="#39e5c5"] ;
210 -> 220 ;
221 [label="gini = 0.0\nsamples = 2\nvalue = [0, 0, 2, 0, 0]", fillcolor="#39e5c5"] ;
209 -> 221 ;
222 [label="gini = 0.0\nsamples = 1\nvalue = [2, 0, 0, 0, 0]", fillcolor="#e58139"] ;
208 -> 222 ;
223 [label="dst_host_same_src_port_rate <= 0.145\ngini = 0.388\nsamples = 12\nvalue = [14, 0, 5, 0, 0]", fillcolor="#eeae80"] ;
207 -> 223 ;
224 [label="dst_host_srv_count <= 4.5\ngini = 0.219\nsamples = 10\nvalue = [14, 0, 2, 0, 0]", fillcolor="#e99355"] ;
223 -> 224 ;
225 [label="last_flag <= 5.0\ngini = 0.32\nsamples = 6\nvalue = [8, 0, 2, 0, 0]", fillcolor="#eca06a"] ;
224 -> 225 ;
226 [label="gini = 0.0\nsamples = 2\nvalue = [0, 0, 2, 0, 0]", fillcolor="#39e5c5"] ;
225 -> 226 ;
227 [label="gini = 0.0\nsamples = 4\nvalue = [8, 0, 0, 0, 0]", fillcolor="#e58139"] ;
225 -> 227 ;
228 [label="gini = 0.0\nsamples = 4\nvalue = [6, 0, 0, 0, 0]", fillcolor="#e58139"] ;
224 -> 228 ;
229 [label="gini = 0.0\nsamples = 2\nvalue = [0, 0, 3, 0, 0]", fillcolor="#39e5c5"] ;
223 -> 229 ;
230 [label="gini = 0.0\nsamples = 1230\nvalue = [0, 0, 1918, 0, 0]", fillcolor="#39e5c5"] ;
204 -> 230 ;
231 [label="src_bytes <= 3.0\ngini = 0.227\nsamples = 29\nvalue = [40, 6, 0, 0, 0]", fillcolor="#e99457"] ;
203 -> 231 ;
232 [label="dst_host_srv_count <= 6.0\ngini = 0.48\nsamples = 7\nvalue = [4, 6, 0, 0, 0]", fillcolor="#d3f6bd"] ;
231 -> 232 ;
233 [label="gini = 0.0\nsamples = 4\nvalue = [0, 6, 0, 0, 0]", fillcolor="#7be539"] ;
232 -> 233 ;
234 [label="gini = 0.0\nsamples = 3\nvalue = [4, 0, 0, 0, 0]", fillcolor="#e58139"] ;
232 -> 234 ;
235 [label="gini = 0.0\nsamples = 22\nvalue = [36, 0, 0, 0, 0]", fillcolor="#e58139"] ;
231 -> 235 ;
236 [label="dst_host_same_src_port_rate <= 0.71\ngini = 0.283\nsamples = 1207\nvalue = [1562, 0, 322, 0, 0]", fillcolor="#ea9b62"] ;
2 -> 236 ;
237 [label="service_eco_i <= 0.5\ngini = 0.004\nsamples = 894\nvalue = [1401, 0, 3, 0, 0]", fillcolor="#e58139"] ;
236 -> 237 ;
238 [label="gini = 0.0\nsamples = 893\nvalue = [1401, 0, 0, 0, 0]", fillcolor="#e58139"] ;
237 -> 238 ;
239 [label="gini = 0.0\nsamples = 1\nvalue = [0, 0, 3, 0, 0]", fillcolor="#39e5c5"] ;
237 -> 239 ;
240 [label="dst_host_count <= 1.5\ngini = 0.446\nsamples = 313\nvalue = [161, 0, 319, 0, 0]", fillcolor="#9df2e2"] ;
236 -> 240 ;
241 [label="flag_SF <= 0.5\ngini = 0.5\nsamples = 177\nvalue = [138, 0, 139, 0, 0]", fillcolor="#feffff"] ;
240 -> 241 ;
242 [label="gini = 0.0\nsamples = 85\nvalue = [135, 0, 0, 0, 0]", fillcolor="#e58139"] ;
241 -> 242 ;
243 [label="service_eco_i <= 0.5\ngini = 0.041\nsamples = 92\nvalue = [3, 0, 139, 0, 0]", fillcolor="#3de6c6"] ;
241 -> 243 ;
244 [label="gini = 0.0\nsamples = 1\nvalue = [3, 0, 0, 0, 0]", fillcolor="#e58139"] ;
243 -> 244 ;
245 [label="gini = 0.0\nsamples = 91\nvalue = [0, 0, 139, 0, 0]", fillcolor="#39e5c5"] ;
243 -> 245 ;
246 [label="flag_SF <= 0.5\ngini = 0.201\nsamples = 136\nvalue = [23, 0, 180, 0, 0]", fillcolor="#52e8cc"] ;
240 -> 246 ;
247 [label="gini = 0.0\nsamples = 15\nvalue = [22, 0, 0, 0, 0]", fillcolor="#e58139"] ;
246 -> 247 ;
248 [label="dst_host_count <= 41.0\ngini = 0.011\nsamples = 121\nvalue = [1, 0, 180, 0, 0]", fillcolor="#3ae5c5"] ;
246 -> 248 ;
249 [label="gini = 0.0\nsamples = 112\nvalue = [0, 0, 171, 0, 0]", fillcolor="#39e5c5"] ;
248 -> 249 ;
250 [label="src_bytes <= 9.0\ngini = 0.18\nsamples = 9\nvalue = [1, 0, 9, 0, 0]", fillcolor="#4fe8cb"] ;
248 -> 250 ;
251 [label="gini = 0.0\nsamples = 8\nvalue = [0, 0, 9, 0, 0]", fillcolor="#39e5c5"] ;
250 -> 251 ;
252 [label="gini = 0.0\nsamples = 1\nvalue = [1, 0, 0, 0, 0]", fillcolor="#e58139"] ;
250 -> 252 ;
253 [label="dst_host_srv_count <= 1.5\ngini = 0.166\nsamples = 21376\nvalue = [95, 30597, 2962, 0, 2]", fillcolor="#88e84d"] ;
1 -> 253 ;
254 [label="last_flag <= 20.5\ngini = 0.498\nsamples = 2425\nvalue = [6, 1720, 2060, 0, 0]", fillcolor="#defbf5"] ;
253 -> 254 ;
255 [label="dst_host_diff_srv_rate <= 0.095\ngini = 0.475\nsamples = 2108\nvalue = [6, 1249, 2005, 0, 0]", fillcolor="#b5f5e9"] ;
254 -> 255 ;
256 [label="dst_host_same_src_port_rate <= 0.015\ngini = 0.113\nsamples = 836\nvalue = [6, 1212, 71, 0, 0]", fillcolor="#83e746"] ;
255 -> 256 ;
257 [label="dst_host_count <= 118.0\ngini = 0.055\nsamples = 807\nvalue = [6, 1209, 29, 0, 0]", fillcolor="#7fe63f"] ;
256 -> 257 ;
258 [label="gini = 0.0\nsamples = 2\nvalue = [0, 0, 5, 0, 0]", fillcolor="#39e5c5"] ;
257 -> 258 ;
259 [label="same_srv_rate <= 0.455\ngini = 0.047\nsamples = 805\nvalue = [6, 1209, 24, 0, 0]", fillcolor="#7ee63e"] ;
257 -> 259 ;
260 [label="diff_srv_rate <= 0.875\ngini = 0.032\nsamples = 799\nvalue = [3, 1209, 17, 0, 0]", fillcolor="#7de53c"] ;
259 -> 260 ;
261 [label="src_bytes <= 0.5\ngini = 0.005\nsamples = 786\nvalue = [3, 1207, 0, 0, 0]", fillcolor="#7be539"] ;
260 -> 261 ;
262 [label="gini = 0.0\nsamples = 783\nvalue = [0, 1207, 0, 0, 0]", fillcolor="#7be539"] ;
261 -> 262 ;
263 [label="gini = 0.0\nsamples = 3\nvalue = [3, 0, 0, 0, 0]", fillcolor="#e58139"] ;
261 -> 263 ;
264 [label="dst_host_diff_srv_rate <= 0.075\ngini = 0.188\nsamples = 13\nvalue = [0, 2, 17, 0, 0]", fillcolor="#50e8cc"] ;
260 -> 264 ;
265 [label="gini = 0.0\nsamples = 8\nvalue = [0, 0, 12, 0, 0]", fillcolor="#39e5c5"] ;
264 -> 265 ;
266 [label="dst_host_same_srv_rate <= 0.005\ngini = 0.408\nsamples = 5\nvalue = [0, 2, 5, 0, 0]", fillcolor="#88efdc"] ;
264 -> 266 ;
267 [label="last_flag <= 16.5\ngini = 0.5\nsamples = 3\nvalue = [0, 2, 2, 0, 0]", fillcolor="#ffffff"] ;
266 -> 267 ;
268 [label="gini = 0.0\nsamples = 1\nvalue = [0, 0, 2, 0, 0]", fillcolor="#39e5c5"] ;
267 -> 268 ;
269 [label="gini = 0.0\nsamples = 2\nvalue = [0, 2, 0, 0, 0]", fillcolor="#7be539"] ;
267 -> 269 ;
270 [label="gini = 0.0\nsamples = 2\nvalue = [0, 0, 3, 0, 0]", fillcolor="#39e5c5"] ;
266 -> 270 ;
271 [label="rerror_rate <= 0.25\ngini = 0.42\nsamples = 6\nvalue = [3, 0, 7, 0, 0]", fillcolor="#8ef0de"] ;
259 -> 271 ;
272 [label="gini = 0.0\nsamples = 4\nvalue = [0, 0, 7, 0, 0]", fillcolor="#39e5c5"] ;
271 -> 272 ;
273 [label="gini = 0.0\nsamples = 2\nvalue = [3, 0, 0, 0, 0]", fillcolor="#e58139"] ;
271 -> 273 ;
274 [label="dst_host_same_src_port_rate <= 0.66\ngini = 0.124\nsamples = 29\nvalue = [0, 3, 42, 0, 0]", fillcolor="#47e7c9"] ;
256 -> 274 ;
275 [label="serror_rate <= 0.9\ngini = 0.05\nsamples = 25\nvalue = [0, 1, 38, 0, 0]", fillcolor="#3ee6c7"] ;
274 -> 275 ;
276 [label="gini = 0.0\nsamples = 24\nvalue = [0, 0, 38, 0, 0]", fillcolor="#39e5c5"] ;
275 -> 276 ;
277 [label="gini = 0.0\nsamples = 1\nvalue = [0, 1, 0, 0, 0]", fillcolor="#7be539"] ;
275 -> 277 ;
278 [label="serror_rate <= 0.5\ngini = 0.444\nsamples = 4\nvalue = [0, 2, 4, 0, 0]", fillcolor="#9cf2e2"] ;
274 -> 278 ;
279 [label="dst_host_same_srv_rate <= 0.5\ngini = 0.32\nsamples = 3\nvalue = [0, 1, 4, 0, 0]", fillcolor="#6aecd4"] ;
278 -> 279 ;
280 [label="gini = 0.0\nsamples = 1\nvalue = [0, 0, 2, 0, 0]", fillcolor="#39e5c5"] ;
279 -> 280 ;
281 [label="count <= 51.0\ngini = 0.444\nsamples = 2\nvalue = [0, 1, 2, 0, 0]", fillcolor="#9cf2e2"] ;
279 -> 281 ;
282 [label="gini = 0.0\nsamples = 1\nvalue = [0, 0, 2, 0, 0]", fillcolor="#39e5c5"] ;
281 -> 282 ;
283 [label="gini = 0.0\nsamples = 1\nvalue = [0, 1, 0, 0, 0]", fillcolor="#7be539"] ;
281 -> 283 ;
284 [label="gini = 0.0\nsamples = 1\nvalue = [0, 1, 0, 0, 0]", fillcolor="#7be539"] ;
278 -> 284 ;
285 [label="srv_count <= 2.5\ngini = 0.037\nsamples = 1272\nvalue = [0, 37, 1934, 0, 0]", fillcolor="#3de5c6"] ;
255 -> 285 ;
286 [label="diff_srv_rate <= 0.085\ngini = 0.021\nsamples = 1263\nvalue = [0, 21, 1934, 0, 0]", fillcolor="#3be5c6"] ;
285 -> 286 ;
287 [label="src_bytes <= 0.5\ngini = 0.159\nsamples = 14\nvalue = [0, 21, 2, 0, 0]", fillcolor="#88e74c"] ;
286 -> 287 ;
288 [label="gini = 0.0\nsamples = 13\nvalue = [0, 21, 0, 0, 0]", fillcolor="#7be539"] ;
287 -> 288 ;
289 [label="gini = 0.0\nsamples = 1\nvalue = [0, 0, 2, 0, 0]", fillcolor="#39e5c5"] ;
287 -> 289 ;
290 [label="gini = 0.0\nsamples = 1249\nvalue = [0, 0, 1932, 0, 0]", fillcolor="#39e5c5"] ;
286 -> 290 ;
291 [label="gini = 0.0\nsamples = 9\nvalue = [0, 16, 0, 0, 0]", fillcolor="#7be539"] ;
285 -> 291 ;
292 [label="rerror_rate <= 0.12\ngini = 0.187\nsamples = 317\nvalue = [0, 471, 55, 0, 0]", fillcolor="#8ae850"] ;
254 -> 292 ;
293 [label="dst_host_same_src_port_rate <= 0.505\ngini = 0.01\nsamples = 239\nvalue = [0, 390, 2, 0, 0]", fillcolor="#7ce53a"] ;
292 -> 293 ;
294 [label="gini = 0.0\nsamples = 238\nvalue = [0, 390, 0, 0, 0]", fillcolor="#7be539"] ;
293 -> 294 ;
295 [label="gini = 0.0\nsamples = 1\nvalue = [0, 0, 2, 0, 0]", fillcolor="#39e5c5"] ;
293 -> 295 ;
296 [label="diff_srv_rate <= 0.285\ngini = 0.478\nsamples = 78\nvalue = [0, 81, 53, 0, 0]", fillcolor="#d1f6bb"] ;
292 -> 296 ;
297 [label="gini = 0.0\nsamples = 47\nvalue = [0, 81, 0, 0, 0]", fillcolor="#7be539"] ;
296 -> 297 ;
298 [label="gini = 0.0\nsamples = 31\nvalue = [0, 0, 53, 0, 0]", fillcolor="#39e5c5"] ;
296 -> 298 ;
299 [label="last_flag <= 17.5\ngini = 0.064\nsamples = 18951\nvalue = [89, 28877, 902, 0, 2]", fillcolor="#80e640"] ;
253 -> 299 ;
300 [label="count <= 36.5\ngini = 0.48\nsamples = 276\nvalue = [25, 114, 281, 0, 2]", fillcolor="#94f1e0"] ;
299 -> 300 ;
301 [label="serror_rate <= 0.415\ngini = 0.38\nsamples = 198\nvalue = [22, 47, 236, 0, 2]", fillcolor="#6fecd5"] ;
300 -> 301 ;
302 [label="protocol_type_tcp <= 0.5\ngini = 0.266\nsamples = 176\nvalue = [22, 17, 234, 0, 2]", fillcolor="#59e9ce"] ;
301 -> 302 ;
303 [label="rerror_rate <= 0.015\ngini = 0.14\nsamples = 143\nvalue = [0, 17, 207, 0, 0]", fillcolor="#49e7ca"] ;
302 -> 303 ;
304 [label="gini = 0.0\nsamples = 133\nvalue = [0, 0, 207, 0, 0]", fillcolor="#39e5c5"] ;
303 -> 304 ;
305 [label="gini = 0.0\nsamples = 10\nvalue = [0, 17, 0, 0, 0]", fillcolor="#7be539"] ;
303 -> 305 ;
306 [label="count <= 5.5\ngini = 0.532\nsamples = 33\nvalue = [22, 0, 27, 0, 2]", fillcolor="#ddfbf5"] ;
302 -> 306 ;
307 [label="dst_host_diff_srv_rate <= 0.195\ngini = 0.537\nsamples = 23\nvalue = [20, 0, 14, 0, 2]", fillcolor="#f8ddc9"] ;
306 -> 307 ;
308 [label="dst_host_srv_count <= 185.5\ngini = 0.351\nsamples = 16\nvalue = [19, 0, 3, 0, 2]", fillcolor="#eb9f68"] ;
307 -> 308 ;
309 [label="dst_host_same_src_port_rate <= 0.015\ngini = 0.302\nsamples = 15\nvalue = [19, 0, 2, 0, 2]", fillcolor="#ea995f"] ;
308 -> 309 ;
310 [label="same_srv_rate <= 0.585\ngini = 0.346\nsamples = 6\nvalue = [7, 0, 2, 0, 0]", fillcolor="#eca572"] ;
309 -> 310 ;
311 [label="gini = 0.0\nsamples = 4\nvalue = [7, 0, 0, 0, 0]", fillcolor="#e58139"] ;
310 -> 311 ;
312 [label="gini = 0.0\nsamples = 2\nvalue = [0, 0, 2, 0, 0]", fillcolor="#39e5c5"] ;
310 -> 312 ;
313 [label="dst_bytes <= 1054.5\ngini = 0.245\nsamples = 9\nvalue = [12, 0, 0, 0, 2]", fillcolor="#e9965a"] ;
309 -> 313 ;
314 [label="gini = 0.0\nsamples = 8\nvalue = [12, 0, 0, 0, 0]", fillcolor="#e58139"] ;
313 -> 314 ;
315 [label="gini = 0.0\nsamples = 1\nvalue = [0, 0, 0, 0, 2]", fillcolor="#e539c0"] ;
313 -> 315 ;
316 [label="gini = 0.0\nsamples = 1\nvalue = [0, 0, 1, 0, 0]", fillcolor="#39e5c5"] ;
308 -> 316 ;
317 [label="dst_host_diff_srv_rate <= 0.675\ngini = 0.153\nsamples = 7\nvalue = [1, 0, 11, 0, 0]", fillcolor="#4be7ca"] ;
307 -> 317 ;
318 [label="gini = 0.0\nsamples = 6\nvalue = [0, 0, 11, 0, 0]", fillcolor="#39e5c5"] ;
317 -> 318 ;
319 [label="gini = 0.0\nsamples = 1\nvalue = [1, 0, 0, 0, 0]", fillcolor="#e58139"] ;
317 -> 319 ;
320 [label="dst_bytes <= 194.0\ngini = 0.231\nsamples = 10\nvalue = [2, 0, 13, 0, 0]", fillcolor="#57e9ce"] ;
306 -> 320 ;
321 [label="dst_bytes <= 31.5\ngini = 0.133\nsamples = 9\nvalue = [1, 0, 13, 0, 0]", fillcolor="#48e7c9"] ;
320 -> 321 ;
322 [label="gini = 0.0\nsamples = 6\nvalue = [0, 0, 9, 0, 0]", fillcolor="#39e5c5"] ;
321 -> 322 ;
323 [label="dst_host_srv_diff_host_rate <= 0.15\ngini = 0.32\nsamples = 3\nvalue = [1, 0, 4, 0, 0]", fillcolor="#6aecd4"] ;
321 -> 323 ;
324 [label="gini = 0.0\nsamples = 2\nvalue = [0, 0, 4, 0, 0]", fillcolor="#39e5c5"] ;
323 -> 324 ;
325 [label="gini = 0.0\nsamples = 1\nvalue = [1, 0, 0, 0, 0]", fillcolor="#e58139"] ;
323 -> 325 ;
326 [label="gini = 0.0\nsamples = 1\nvalue = [1, 0, 0, 0, 0]", fillcolor="#e58139"] ;
320 -> 326 ;
327 [label="dst_host_diff_srv_rate <= 0.415\ngini = 0.117\nsamples = 22\nvalue = [0, 30, 2, 0, 0]", fillcolor="#84e746"] ;
301 -> 327 ;
328 [label="gini = 0.0\nsamples = 20\nvalue = [0, 30, 0, 0, 0]", fillcolor="#7be539"] ;
327 -> 328 ;
329 [label="gini = 0.0\nsamples = 2\nvalue = [0, 0, 2, 0, 0]", fillcolor="#39e5c5"] ;
327 -> 329 ;
330 [label="rerror_rate <= 0.985\ngini = 0.507\nsamples = 78\nvalue = [3, 67, 45, 0, 0]", fillcolor="#d6f7c1"] ;
300 -> 330 ;
331 [label="srv_count <= 35.0\ngini = 0.512\nsamples = 48\nvalue = [3, 27, 44, 0, 0]", fillcolor="#b7f6ea"] ;
330 -> 331 ;
332 [label="serror_rate <= 0.9\ngini = 0.122\nsamples = 32\nvalue = [3, 0, 43, 0, 0]", fillcolor="#47e7c9"] ;
331 -> 332 ;
333 [label="last_flag <= 11.5\ngini = 0.045\nsamples = 29\nvalue = [1, 0, 42, 0, 0]", fillcolor="#3ee6c6"] ;
332 -> 333 ;
334 [label="gini = 0.0\nsamples = 1\nvalue = [1, 0, 0, 0, 0]", fillcolor="#e58139"] ;
333 -> 334 ;
335 [label="gini = 0.0\nsamples = 28\nvalue = [0, 0, 42, 0, 0]", fillcolor="#39e5c5"] ;
333 -> 335 ;
336 [label="dst_host_count <= 134.0\ngini = 0.444\nsamples = 3\nvalue = [2, 0, 1, 0, 0]", fillcolor="#f2c09c"] ;
332 -> 336 ;
337 [label="gini = 0.0\nsamples = 1\nvalue = [0, 0, 1, 0, 0]", fillcolor="#39e5c5"] ;
336 -> 337 ;
338 [label="gini = 0.0\nsamples = 2\nvalue = [2, 0, 0, 0, 0]", fillcolor="#e58139"] ;
336 -> 338 ;
339 [label="dst_host_same_src_port_rate <= 0.66\ngini = 0.069\nsamples = 16\nvalue = [0, 27, 1, 0, 0]", fillcolor="#80e640"] ;
331 -> 339 ;
340 [label="gini = 0.0\nsamples = 15\nvalue = [0, 27, 0, 0, 0]", fillcolor="#7be539"] ;
339 -> 340 ;
341 [label="gini = 0.0\nsamples = 1\nvalue = [0, 0, 1, 0, 0]", fillcolor="#39e5c5"] ;
339 -> 341 ;
342 [label="dst_host_srv_count <= 41.5\ngini = 0.048\nsamples = 30\nvalue = [0, 40, 1, 0, 0]", fillcolor="#7ee63e"] ;
330 -> 342 ;
343 [label="gini = 0.0\nsamples = 29\nvalue = [0, 40, 0, 0, 0]", fillcolor="#7be539"] ;
342 -> 343 ;
344 [label="gini = 0.0\nsamples = 1\nvalue = [0, 0, 1, 0, 0]", fillcolor="#39e5c5"] ;
342 -> 344 ;
345 [label="protocol_type_tcp <= 0.5\ngini = 0.046\nsamples = 18675\nvalue = [64, 28763, 621, 0, 0]", fillcolor="#7ee63e"] ;
299 -> 345 ;
346 [label="dst_host_same_src_port_rate <= 0.395\ngini = 0.227\nsamples = 335\nvalue = [4, 65, 465, 0, 0]", fillcolor="#56e9ce"] ;
345 -> 346 ;
347 [label="dst_host_srv_count <= 20.0\ngini = 0.521\nsamples = 98\nvalue = [4, 65, 79, 0, 0]", fillcolor="#defbf5"] ;
346 -> 347 ;
348 [label="serror_rate <= 0.42\ngini = 0.217\nsamples = 58\nvalue = [1, 10, 79, 0, 0]", fillcolor="#54e9cd"] ;
347 -> 348 ;
349 [label="dst_bytes <= 39.5\ngini = 0.025\nsamples = 50\nvalue = [1, 0, 79, 0, 0]", fillcolor="#3ce5c6"] ;
348 -> 349 ;
350 [label="gini = 0.0\nsamples = 49\nvalue = [0, 0, 79, 0, 0]", fillcolor="#39e5c5"] ;
349 -> 350 ;
351 [label="gini = 0.0\nsamples = 1\nvalue = [1, 0, 0, 0, 0]", fillcolor="#e58139"] ;
349 -> 351 ;
352 [label="gini = 0.0\nsamples = 8\nvalue = [0, 10, 0, 0, 0]", fillcolor="#7be539"] ;
348 -> 352 ;
353 [label="count <= 47.0\ngini = 0.098\nsamples = 40\nvalue = [3, 55, 0, 0, 0]", fillcolor="#82e644"] ;
347 -> 353 ;
354 [label="gini = 0.0\nsamples = 3\nvalue = [3, 0, 0, 0, 0]", fillcolor="#e58139"] ;
353 -> 354 ;
355 [label="gini = 0.0\nsamples = 37\nvalue = [0, 55, 0, 0, 0]", fillcolor="#7be539"] ;
353 -> 355 ;
356 [label="gini = 0.0\nsamples = 237\nvalue = [0, 0, 386, 0, 0]", fillcolor="#39e5c5"] ;
346 -> 356 ;
357 [label="dst_host_same_src_port_rate <= 0.145\ngini = 0.015\nsamples = 18340\nvalue = [60, 28698, 156, 0, 0]", fillcolor="#7ce53a"] ;
345 -> 357 ;
358 [label="diff_srv_rate <= 0.89\ngini = 0.005\nsamples = 18232\nvalue = [57, 28685, 11, 0, 0]", fillcolor="#7be539"] ;
357 -> 358 ;
359 [label="logged_in <= 0.5\ngini = 0.001\nsamples = 18172\nvalue = [5, 28648, 10, 0, 0]", fillcolor="#7be539"] ;
358 -> 359 ;
360 [label="dst_bytes <= 18.5\ngini = 0.001\nsamples = 18170\nvalue = [3, 28648, 10, 0, 0]", fillcolor="#7be539"] ;
359 -> 360 ;
361 [label="srv_count <= 2.5\ngini = 0.001\nsamples = 18169\nvalue = [1, 28648, 10, 0, 0]", fillcolor="#7be539"] ;
360 -> 361 ;
362 [label="diff_srv_rate <= 0.415\ngini = 0.008\nsamples = 1512\nvalue = [1, 2376, 9, 0, 0]", fillcolor="#7ce53a"] ;
361 -> 362 ;
363 [label="gini = 0.0\nsamples = 1432\nvalue = [0, 2267, 0, 0, 0]", fillcolor="#7be539"] ;
362 -> 363 ;
364 [label="service_private <= 0.5\ngini = 0.155\nsamples = 80\nvalue = [1, 109, 9, 0, 0]", fillcolor="#87e74b"] ;
362 -> 364 ;
365 [label="dst_host_same_src_port_rate <= 0.03\ngini = 0.063\nsamples = 63\nvalue = [1, 90, 2, 0, 0]", fillcolor="#7fe640"] ;
364 -> 365 ;
366 [label="gini = 0.0\nsamples = 60\nvalue = [0, 90, 0, 0, 0]", fillcolor="#7be539"] ;
365 -> 366 ;
367 [label="diff_srv_rate <= 0.585\ngini = 0.444\nsamples = 3\nvalue = [1, 0, 2, 0, 0]", fillcolor="#9cf2e2"] ;
365 -> 367 ;
368 [label="gini = 0.0\nsamples = 2\nvalue = [0, 0, 2, 0, 0]", fillcolor="#39e5c5"] ;
367 -> 368 ;
369 [label="gini = 0.0\nsamples = 1\nvalue = [1, 0, 0, 0, 0]", fillcolor="#e58139"] ;
367 -> 369 ;
370 [label="dst_host_same_src_port_rate <= 0.015\ngini = 0.393\nsamples = 17\nvalue = [0, 19, 7, 0, 0]", fillcolor="#acef82"] ;
364 -> 370 ;
371 [label="gini = 0.0\nsamples = 11\nvalue = [0, 19, 0, 0, 0]", fillcolor="#7be539"] ;
370 -> 371 ;
372 [label="gini = 0.0\nsamples = 6\nvalue = [0, 0, 7, 0, 0]", fillcolor="#39e5c5"] ;
370 -> 372 ;
373 [label="dst_host_count <= 254.5\ngini = 0.0\nsamples = 16657\nvalue = [0, 26272, 1, 0, 0]", fillcolor="#7be539"] ;
361 -> 373 ;
374 [label="gini = 0.0\nsamples = 691\nvalue = [0, 1087, 0, 0, 0]", fillcolor="#7be539"] ;
373 -> 374 ;
375 [label="rerror_rate <= 0.21\ngini = 0.0\nsamples = 15966\nvalue = [0, 25185, 1, 0, 0]", fillcolor="#7be539"] ;
373 -> 375 ;
376 [label="gini = 0.0\nsamples = 13187\nvalue = [0, 20788, 0, 0, 0]", fillcolor="#7be539"] ;
375 -> 376 ;
377 [label="diff_srv_rate <= 0.29\ngini = 0.0\nsamples = 2779\nvalue = [0, 4397, 1, 0, 0]", fillcolor="#7be539"] ;
375 -> 377 ;
378 [label="gini = 0.0\nsamples = 2778\nvalue = [0, 4397, 0, 0, 0]", fillcolor="#7be539"] ;
377 -> 378 ;
379 [label="gini = 0.0\nsamples = 1\nvalue = [0, 0, 1, 0, 0]", fillcolor="#39e5c5"] ;
377 -> 379 ;
380 [label="gini = 0.0\nsamples = 1\nvalue = [2, 0, 0, 0, 0]", fillcolor="#e58139"] ;
360 -> 380 ;
381 [label="gini = 0.0\nsamples = 2\nvalue = [2, 0, 0, 0, 0]", fillcolor="#e58139"] ;
359 -> 381 ;
382 [label="count <= 2.5\ngini = 0.497\nsamples = 60\nvalue = [52, 37, 1, 0, 0]", fillcolor="#f8dbc7"] ;
358 -> 382 ;
383 [label="last_flag <= 19.5\ngini = 0.424\nsamples = 48\nvalue = [50, 22, 0, 0, 0]", fillcolor="#f0b890"] ;
382 -> 383 ;
384 [label="dst_host_srv_count <= 28.5\ngini = 0.105\nsamples = 12\nvalue = [1, 17, 0, 0, 0]", fillcolor="#83e745"] ;
383 -> 384 ;
385 [label="src_bytes <= 4.0\ngini = 0.219\nsamples = 4\nvalue = [1, 7, 0, 0, 0]", fillcolor="#8ee955"] ;
384 -> 385 ;
386 [label="gini = 0.0\nsamples = 3\nvalue = [0, 7, 0, 0, 0]", fillcolor="#7be539"] ;
385 -> 386 ;
387 [label="gini = 0.0\nsamples = 1\nvalue = [1, 0, 0, 0, 0]", fillcolor="#e58139"] ;
385 -> 387 ;
388 [label="gini = 0.0\nsamples = 8\nvalue = [0, 10, 0, 0, 0]", fillcolor="#7be539"] ;
384 -> 388 ;
389 [label="service_private <= 0.5\ngini = 0.168\nsamples = 36\nvalue = [49, 5, 0, 0, 0]", fillcolor="#e88e4d"] ;
383 -> 389 ;
390 [label="gini = 0.0\nsamples = 34\nvalue = [49, 0, 0, 0, 0]", fillcolor="#e58139"] ;
389 -> 390 ;
391 [label="gini = 0.0\nsamples = 2\nvalue = [0, 5, 0, 0, 0]", fillcolor="#7be539"] ;
389 -> 391 ;
392 [label="count <= 243.0\ngini = 0.29\nsamples = 12\nvalue = [2, 15, 1, 0, 0]", fillcolor="#94ea5e"] ;
382 -> 392 ;
393 [label="logged_in <= 0.5\ngini = 0.208\nsamples = 11\nvalue = [2, 15, 0, 0, 0]", fillcolor="#8de853"] ;
392 -> 393 ;
394 [label="gini = 0.0\nsamples = 10\nvalue = [0, 15, 0, 0, 0]", fillcolor="#7be539"] ;
393 -> 394 ;
395 [label="gini = 0.0\nsamples = 1\nvalue = [2, 0, 0, 0, 0]", fillcolor="#e58139"] ;
393 -> 395 ;
396 [label="gini = 0.0\nsamples = 1\nvalue = [0, 0, 1, 0, 0]", fillcolor="#39e5c5"] ;
392 -> 396 ;
397 [label="dst_host_count <= 192.0\ngini = 0.182\nsamples = 108\nvalue = [3, 13, 145, 0, 0]", fillcolor="#4ee8cb"] ;
357 -> 397 ;
398 [label="diff_srv_rate <= 0.665\ngini = 0.305\nsamples = 11\nvalue = [3, 13, 0, 0, 0]", fillcolor="#99eb67"] ;
397 -> 398 ;
399 [label="gini = 0.0\nsamples = 7\nvalue = [0, 11, 0, 0, 0]", fillcolor="#7be539"] ;
398 -> 399 ;
400 [label="dst_host_srv_count <= 8.0\ngini = 0.48\nsamples = 4\nvalue = [3, 2, 0, 0, 0]", fillcolor="#f6d5bd"] ;
398 -> 400 ;
401 [label="gini = 0.0\nsamples = 1\nvalue = [0, 2, 0, 0, 0]", fillcolor="#7be539"] ;
400 -> 401 ;
402 [label="gini = 0.0\nsamples = 3\nvalue = [3, 0, 0, 0, 0]", fillcolor="#e58139"] ;
400 -> 402 ;
403 [label="gini = 0.0\nsamples = 97\nvalue = [0, 0, 145, 0, 0]", fillcolor="#39e5c5"] ;
397 -> 403 ;
404 [label="dst_bytes <= 0.5\ngini = 0.139\nsamples = 32162\nvalue = [47173, 2892, 182, 685, 19]", fillcolor="#e78b49"] ;
0 -> 404 [labeldistance=2.5, labelangle=-45, headlabel="False"] ;
405 [label="srv_count <= 33.5\ngini = 0.492\nsamples = 5069\nvalue = [5248, 2156, 174, 401, 3]", fillcolor="#f1bc96"] ;
404 -> 405 ;
406 [label="last_flag <= 14.5\ngini = 0.24\nsamples = 3860\nvalue = [5237, 220, 174, 401, 3]", fillcolor="#e99355"] ;
405 -> 406 ;
407 [label="dst_host_srv_diff_host_rate <= 0.065\ngini = 0.652\nsamples = 489\nvalue = [167, 39, 174, 373, 3]", fillcolor="#bcbbf6"] ;
406 -> 407 ;
408 [label="logged_in <= 0.5\ngini = 0.69\nsamples = 273\nvalue = [140, 38, 174, 72, 3]", fillcolor="#e8fcf8"] ;
407 -> 408 ;
409 [label="dst_host_same_srv_rate <= 0.81\ngini = 0.46\nsamples = 160\nvalue = [31, 38, 174, 0, 3]", fillcolor="#7eeed9"] ;
408 -> 409 ;
410 [label="service_private <= 0.5\ngini = 0.611\nsamples = 59\nvalue = [9, 36, 42, 0, 3]", fillcolor="#e9fcf9"] ;
409 -> 410 ;
411 [label="flag_SF <= 0.5\ngini = 0.548\nsamples = 37\nvalue = [9, 36, 9, 0, 3]", fillcolor="#b5f090"] ;
410 -> 411 ;
412 [label="gini = 0.0\nsamples = 3\nvalue = [0, 0, 7, 0, 0]", fillcolor="#39e5c5"] ;
411 -> 412 ;
413 [label="dst_host_count <= 237.0\ngini = 0.444\nsamples = 34\nvalue = [9, 36, 2, 0, 3]", fillcolor="#a8ee7d"] ;
411 -> 413 ;
414 [label="dst_host_same_src_port_rate <= 0.42\ngini = 0.105\nsamples = 25\nvalue = [0, 34, 2, 0, 0]", fillcolor="#83e745"] ;
413 -> 414 ;
415 [label="gini = 0.0\nsamples = 15\nvalue = [0, 23, 0, 0, 0]", fillcolor="#7be539"] ;
414 -> 415 ;
416 [label="dst_host_srv_count <= 1.5\ngini = 0.26\nsamples = 10\nvalue = [0, 11, 2, 0, 0]", fillcolor="#93ea5d"] ;
414 -> 416 ;
417 [label="gini = 0.0\nsamples = 1\nvalue = [0, 0, 2, 0, 0]", fillcolor="#39e5c5"] ;
416 -> 417 ;
418 [label="gini = 0.0\nsamples = 9\nvalue = [0, 11, 0, 0, 0]", fillcolor="#7be539"] ;
416 -> 418 ;
419 [label="dst_host_same_srv_rate <= 0.005\ngini = 0.52\nsamples = 9\nvalue = [9, 2, 0, 0, 3]", fillcolor="#f1ba93"] ;
413 -> 419 ;
420 [label="dst_host_diff_srv_rate <= 0.04\ngini = 0.656\nsamples = 4\nvalue = [3, 2, 0, 0, 3]", fillcolor="#ffffff"] ;
419 -> 420 ;
421 [label="gini = 0.0\nsamples = 1\nvalue = [0, 0, 0, 0, 3]", fillcolor="#e539c0"] ;
420 -> 421 ;
422 [label="dst_host_diff_srv_rate <= 0.16\ngini = 0.48\nsamples = 3\nvalue = [3, 2, 0, 0, 0]", fillcolor="#f6d5bd"] ;
420 -> 422 ;
423 [label="gini = 0.0\nsamples = 2\nvalue = [3, 0, 0, 0, 0]", fillcolor="#e58139"] ;
422 -> 423 ;
424 [label="gini = 0.0\nsamples = 1\nvalue = [0, 2, 0, 0, 0]", fillcolor="#7be539"] ;
422 -> 424 ;
425 [label="gini = 0.0\nsamples = 5\nvalue = [6, 0, 0, 0, 0]", fillcolor="#e58139"] ;
419 -> 425 ;
426 [label="gini = 0.0\nsamples = 22\nvalue = [0, 0, 33, 0, 0]", fillcolor="#39e5c5"] ;
410 -> 426 ;
427 [label="dst_host_srv_diff_host_rate <= 0.01\ngini = 0.264\nsamples = 101\nvalue = [22, 2, 132, 0, 0]", fillcolor="#5ceacf"] ;
409 -> 427 ;
428 [label="src_bytes <= 389.5\ngini = 0.097\nsamples = 91\nvalue = [5, 2, 132, 0, 0]", fillcolor="#43e6c8"] ;
427 -> 428 ;
429 [label="src_bytes <= 211.0\ngini = 0.015\nsamples = 87\nvalue = [1, 0, 132, 0, 0]", fillcolor="#3be5c5"] ;
428 -> 429 ;
430 [label="gini = 0.0\nsamples = 44\nvalue = [0, 0, 66, 0, 0]", fillcolor="#39e5c5"] ;
429 -> 430 ;
431 [label="dst_host_srv_count <= 210.0\ngini = 0.029\nsamples = 43\nvalue = [1, 0, 66, 0, 0]", fillcolor="#3ce5c6"] ;
429 -> 431 ;
432 [label="gini = 0.0\nsamples = 42\nvalue = [0, 0, 66, 0, 0]", fillcolor="#39e5c5"] ;
431 -> 432 ;
433 [label="gini = 0.0\nsamples = 1\nvalue = [1, 0, 0, 0, 0]", fillcolor="#e58139"] ;
431 -> 433 ;
434 [label="dst_host_same_srv_rate <= 0.93\ngini = 0.444\nsamples = 4\nvalue = [4, 2, 0, 0, 0]", fillcolor="#f2c09c"] ;
428 -> 434 ;
435 [label="gini = 0.0\nsamples = 1\nvalue = [2, 0, 0, 0, 0]", fillcolor="#e58139"] ;
434 -> 435 ;
436 [label="dst_host_srv_count <= 1.5\ngini = 0.5\nsamples = 3\nvalue = [2, 2, 0, 0, 0]", fillcolor="#ffffff"] ;
434 -> 436 ;
437 [label="gini = 0.0\nsamples = 1\nvalue = [2, 0, 0, 0, 0]", fillcolor="#e58139"] ;
436 -> 437 ;
438 [label="gini = 0.0\nsamples = 2\nvalue = [0, 2, 0, 0, 0]", fillcolor="#7be539"] ;
436 -> 438 ;
439 [label="gini = 0.0\nsamples = 10\nvalue = [17, 0, 0, 0, 0]", fillcolor="#e58139"] ;
427 -> 439 ;
440 [label="dst_host_same_src_port_rate <= 0.18\ngini = 0.479\nsamples = 113\nvalue = [109, 0, 0, 72, 0]", fillcolor="#f6d4bc"] ;
408 -> 440 ;
441 [label="last_flag <= 4.5\ngini = 0.108\nsamples = 46\nvalue = [66, 0, 0, 4, 0]", fillcolor="#e78945"] ;
440 -> 441 ;
442 [label="gini = 0.0\nsamples = 3\nvalue = [0, 0, 0, 4, 0]", fillcolor="#3c39e5"] ;
441 -> 442 ;
443 [label="gini = 0.0\nsamples = 43\nvalue = [66, 0, 0, 0, 0]", fillcolor="#e58139"] ;
441 -> 443 ;
444 [label="srv_count <= 2.5\ngini = 0.475\nsamples = 67\nvalue = [43, 0, 0, 68, 0]", fillcolor="#b7b6f5"] ;
440 -> 444 ;
445 [label="serror_rate <= 0.25\ngini = 0.453\nsamples = 62\nvalue = [36, 0, 0, 68, 0]", fillcolor="#a3a2f3"] ;
444 -> 445 ;
446 [label="srv_count <= 1.5\ngini = 0.413\nsamples = 58\nvalue = [28, 0, 0, 68, 0]", fillcolor="#8c8bf0"] ;
445 -> 446 ;
447 [label="dst_host_same_src_port_rate <= 0.7\ngini = 0.325\nsamples = 29\nvalue = [10, 0, 0, 39, 0]", fillcolor="#6e6cec"] ;
446 -> 447 ;
448 [label="gini = 0.0\nsamples = 12\nvalue = [0, 0, 0, 19, 0]", fillcolor="#3c39e5"] ;
447 -> 448 ;
449 [label="last_flag <= 9.5\ngini = 0.444\nsamples = 17\nvalue = [10, 0, 0, 20, 0]", fillcolor="#9e9cf2"] ;
447 -> 449 ;
450 [label="gini = 0.0\nsamples = 6\nvalue = [0, 0, 0, 12, 0]", fillcolor="#3c39e5"] ;
449 -> 450 ;
451 [label="dst_host_srv_diff_host_rate <= 0.02\ngini = 0.494\nsamples = 11\nvalue = [10, 0, 0, 8, 0]", fillcolor="#fae6d7"] ;
449 -> 451 ;
452 [label="dst_host_srv_count <= 4.0\ngini = 0.5\nsamples = 7\nvalue = [6, 0, 0, 6, 0]", fillcolor="#ffffff"] ;
451 -> 452 ;
453 [label="same_srv_rate <= 0.75\ngini = 0.48\nsamples = 5\nvalue = [4, 0, 0, 6, 0]", fillcolor="#bebdf6"] ;
452 -> 453 ;
454 [label="gini = 0.0\nsamples = 1\nvalue = [2, 0, 0, 0, 0]", fillcolor="#e58139"] ;
453 -> 454 ;
455 [label="src_bytes <= 766.5\ngini = 0.375\nsamples = 4\nvalue = [2, 0, 0, 6, 0]", fillcolor="#7d7bee"] ;
453 -> 455 ;
456 [label="gini = 0.0\nsamples = 2\nvalue = [0, 0, 0, 3, 0]", fillcolor="#3c39e5"] ;
455 -> 456 ;
457 [label="last_flag <= 11.5\ngini = 0.48\nsamples = 2\nvalue = [2, 0, 0, 3, 0]", fillcolor="#bebdf6"] ;
455 -> 457 ;
458 [label="gini = 0.0\nsamples = 1\nvalue = [2, 0, 0, 0, 0]", fillcolor="#e58139"] ;
457 -> 458 ;
459 [label="gini = 0.0\nsamples = 1\nvalue = [0, 0, 0, 3, 0]", fillcolor="#3c39e5"] ;
457 -> 459 ;
460 [label="gini = 0.0\nsamples = 2\nvalue = [2, 0, 0, 0, 0]", fillcolor="#e58139"] ;
452 -> 460 ;
461 [label="last_flag <= 12.5\ngini = 0.444\nsamples = 4\nvalue = [4, 0, 0, 2, 0]", fillcolor="#f2c09c"] ;
451 -> 461 ;
462 [label="src_bytes <= 2568159.5\ngini = 0.32\nsamples = 3\nvalue = [4, 0, 0, 1, 0]", fillcolor="#eca06a"] ;
461 -> 462 ;
463 [label="gini = 0.0\nsamples = 2\nvalue = [4, 0, 0, 0, 0]", fillcolor="#e58139"] ;
462 -> 463 ;
464 [label="gini = 0.0\nsamples = 1\nvalue = [0, 0, 0, 1, 0]", fillcolor="#3c39e5"] ;
462 -> 464 ;
465 [label="gini = 0.0\nsamples = 1\nvalue = [0, 0, 0, 1, 0]", fillcolor="#3c39e5"] ;
461 -> 465 ;
466 [label="dst_host_srv_count <= 112.5\ngini = 0.473\nsamples = 29\nvalue = [18, 0, 0, 29, 0]", fillcolor="#b5b4f5"] ;
446 -> 466 ;
467 [label="dst_host_srv_count <= 1.5\ngini = 0.427\nsamples = 27\nvalue = [13, 0, 0, 29, 0]", fillcolor="#9392f1"] ;
466 -> 467 ;
468 [label="gini = 0.0\nsamples = 1\nvalue = [1, 0, 0, 0, 0]", fillcolor="#e58139"] ;
467 -> 468 ;
469 [label="dst_host_count <= 8.5\ngini = 0.414\nsamples = 26\nvalue = [12, 0, 0, 29, 0]", fillcolor="#8d8bf0"] ;
467 -> 469 ;
470 [label="dst_host_count <= 7.5\ngini = 0.49\nsamples = 17\nvalue = [12, 0, 0, 16, 0]", fillcolor="#cecef8"] ;
469 -> 470 ;
471 [label="dst_host_srv_diff_host_rate <= 0.01\ngini = 0.483\nsamples = 16\nvalue = [11, 0, 0, 16, 0]", fillcolor="#c2c1f7"] ;
470 -> 471 ;
472 [label="dst_host_srv_count <= 2.5\ngini = 0.36\nsamples = 9\nvalue = [4, 0, 0, 13, 0]", fillcolor="#7876ed"] ;
471 -> 472 ;
473 [label="last_flag <= 13.0\ngini = 0.5\nsamples = 3\nvalue = [2, 0, 0, 2, 0]", fillcolor="#ffffff"] ;
472 -> 473 ;
474 [label="gini = 0.0\nsamples = 2\nvalue = [2, 0, 0, 0, 0]", fillcolor="#e58139"] ;
473 -> 474 ;
475 [label="gini = 0.0\nsamples = 1\nvalue = [0, 0, 0, 2, 0]", fillcolor="#3c39e5"] ;
473 -> 475 ;
476 [label="dst_host_count <= 6.5\ngini = 0.26\nsamples = 6\nvalue = [2, 0, 0, 11, 0]", fillcolor="#5f5dea"] ;
472 -> 476 ;
477 [label="src_bytes <= 358.5\ngini = 0.32\nsamples = 5\nvalue = [2, 0, 0, 8, 0]", fillcolor="#6d6aec"] ;
476 -> 477 ;
478 [label="gini = 0.0\nsamples = 3\nvalue = [0, 0, 0, 8, 0]", fillcolor="#3c39e5"] ;
477 -> 478 ;
479 [label="gini = 0.0\nsamples = 2\nvalue = [2, 0, 0, 0, 0]", fillcolor="#e58139"] ;
477 -> 479 ;
480 [label="gini = 0.0\nsamples = 1\nvalue = [0, 0, 0, 3, 0]", fillcolor="#3c39e5"] ;
476 -> 480 ;
481 [label="dst_host_srv_count <= 50.0\ngini = 0.42\nsamples = 7\nvalue = [7, 0, 0, 3, 0]", fillcolor="#f0b78e"] ;
471 -> 481 ;
482 [label="gini = 0.0\nsamples = 2\nvalue = [0, 0, 0, 2, 0]", fillcolor="#3c39e5"] ;
481 -> 482 ;
483 [label="count <= 1.5\ngini = 0.219\nsamples = 5\nvalue = [7, 0, 0, 1, 0]", fillcolor="#e99355"] ;
481 -> 483 ;
484 [label="gini = 0.0\nsamples = 1\nvalue = [0, 0, 0, 1, 0]", fillcolor="#3c39e5"] ;
483 -> 484 ;
485 [label="gini = 0.0\nsamples = 4\nvalue = [7, 0, 0, 0, 0]", fillcolor="#e58139"] ;
483 -> 485 ;
486 [label="gini = 0.0\nsamples = 1\nvalue = [1, 0, 0, 0, 0]", fillcolor="#e58139"] ;
470 -> 486 ;
487 [label="gini = 0.0\nsamples = 9\nvalue = [0, 0, 0, 13, 0]", fillcolor="#3c39e5"] ;
469 -> 487 ;
488 [label="gini = 0.0\nsamples = 2\nvalue = [5, 0, 0, 0, 0]", fillcolor="#e58139"] ;
466 -> 488 ;
489 [label="gini = 0.0\nsamples = 4\nvalue = [8, 0, 0, 0, 0]", fillcolor="#e58139"] ;
445 -> 489 ;
490 [label="gini = 0.0\nsamples = 5\nvalue = [7, 0, 0, 0, 0]", fillcolor="#e58139"] ;
444 -> 490 ;
491 [label="srv_count <= 1.5\ngini = 0.156\nsamples = 216\nvalue = [27, 1, 0, 301, 0]", fillcolor="#4e4be7"] ;
407 -> 491 ;
492 [label="dst_host_srv_count <= 78.5\ngini = 0.083\nsamples = 121\nvalue = [8, 0, 0, 176, 0]", fillcolor="#4542e6"] ;
491 -> 492 ;
493 [label="dst_host_same_srv_rate <= 0.18\ngini = 0.033\nsamples = 118\nvalue = [3, 0, 0, 176, 0]", fillcolor="#3f3ce5"] ;
492 -> 493 ;
494 [label="gini = 0.0\nsamples = 1\nvalue = [1, 0, 0, 0, 0]", fillcolor="#e58139"] ;
493 -> 494 ;
495 [label="dst_host_same_src_port_rate <= 0.89\ngini = 0.022\nsamples = 117\nvalue = [2, 0, 0, 176, 0]", fillcolor="#3e3be5"] ;
493 -> 495 ;
496 [label="gini = 0.0\nsamples = 3\nvalue = [0, 0, 0, 5, 0]", fillcolor="#3c39e5"] ;
495 -> 496 ;
497 [label="dst_host_srv_count <= 35.5\ngini = 0.023\nsamples = 114\nvalue = [2, 0, 0, 171, 0]", fillcolor="#3e3be5"] ;
495 -> 497 ;
498 [label="dst_host_srv_diff_host_rate <= 0.095\ngini = 0.04\nsamples = 66\nvalue = [2, 0, 0, 95, 0]", fillcolor="#403de6"] ;
497 -> 498 ;
499 [label="src_bytes <= 541.0\ngini = 0.408\nsamples = 6\nvalue = [2, 0, 0, 5, 0]", fillcolor="#8a88ef"] ;
498 -> 499 ;
500 [label="gini = 0.0\nsamples = 2\nvalue = [0, 0, 0, 3, 0]", fillcolor="#3c39e5"] ;
499 -> 500 ;
501 [label="dst_host_srv_count <= 28.5\ngini = 0.5\nsamples = 4\nvalue = [2, 0, 0, 2, 0]", fillcolor="#ffffff"] ;
499 -> 501 ;
502 [label="gini = 0.0\nsamples = 1\nvalue = [1, 0, 0, 0, 0]", fillcolor="#e58139"] ;
501 -> 502 ;
503 [label="dst_host_srv_count <= 34.0\ngini = 0.444\nsamples = 3\nvalue = [1, 0, 0, 2, 0]", fillcolor="#9e9cf2"] ;
501 -> 503 ;
504 [label="gini = 0.0\nsamples = 2\nvalue = [0, 0, 0, 2, 0]", fillcolor="#3c39e5"] ;
503 -> 504 ;
505 [label="gini = 0.0\nsamples = 1\nvalue = [1, 0, 0, 0, 0]", fillcolor="#e58139"] ;
503 -> 505 ;
506 [label="gini = 0.0\nsamples = 60\nvalue = [0, 0, 0, 90, 0]", fillcolor="#3c39e5"] ;
498 -> 506 ;
507 [label="gini = 0.0\nsamples = 48\nvalue = [0, 0, 0, 76, 0]", fillcolor="#3c39e5"] ;
497 -> 507 ;
508 [label="gini = 0.0\nsamples = 3\nvalue = [5, 0, 0, 0, 0]", fillcolor="#e58139"] ;
492 -> 508 ;
509 [label="dst_host_srv_diff_host_rate <= 0.105\ngini = 0.24\nsamples = 95\nvalue = [19, 1, 0, 125, 0]", fillcolor="#5b58e9"] ;
491 -> 509 ;
510 [label="dst_host_count <= 5.5\ngini = 0.482\nsamples = 20\nvalue = [19, 0, 0, 13, 0]", fillcolor="#f7d7c0"] ;
509 -> 510 ;
511 [label="dst_host_srv_diff_host_rate <= 0.075\ngini = 0.308\nsamples = 14\nvalue = [17, 0, 0, 4, 0]", fillcolor="#eb9f68"] ;
510 -> 511 ;
512 [label="gini = 0.0\nsamples = 3\nvalue = [6, 0, 0, 0, 0]", fillcolor="#e58139"] ;
511 -> 512 ;
513 [label="dst_host_count <= 4.5\ngini = 0.391\nsamples = 11\nvalue = [11, 0, 0, 4, 0]", fillcolor="#eeaf81"] ;
511 -> 513 ;
514 [label="srv_count <= 3.0\ngini = 0.444\nsamples = 10\nvalue = [8, 0, 0, 4, 0]", fillcolor="#f2c09c"] ;
513 -> 514 ;
515 [label="dst_host_srv_diff_host_rate <= 0.085\ngini = 0.48\nsamples = 8\nvalue = [6, 0, 0, 4, 0]", fillcolor="#f6d5bd"] ;
514 -> 515 ;
516 [label="dst_host_count <= 3.0\ngini = 0.375\nsamples = 4\nvalue = [1, 0, 0, 3, 0]", fillcolor="#7d7bee"] ;
515 -> 516 ;
517 [label="dst_host_srv_count <= 25.0\ngini = 0.444\nsamples = 3\nvalue = [1, 0, 0, 2, 0]", fillcolor="#9e9cf2"] ;
516 -> 517 ;
518 [label="gini = 0.0\nsamples = 1\nvalue = [0, 0, 0, 1, 0]", fillcolor="#3c39e5"] ;
517 -> 518 ;
519 [label="src_bytes <= 493.0\ngini = 0.5\nsamples = 2\nvalue = [1, 0, 0, 1, 0]", fillcolor="#ffffff"] ;
517 -> 519 ;
520 [label="gini = 0.0\nsamples = 1\nvalue = [0, 0, 0, 1, 0]", fillcolor="#3c39e5"] ;
519 -> 520 ;
521 [label="gini = 0.0\nsamples = 1\nvalue = [1, 0, 0, 0, 0]", fillcolor="#e58139"] ;
519 -> 521 ;
522 [label="gini = 0.0\nsamples = 1\nvalue = [0, 0, 0, 1, 0]", fillcolor="#3c39e5"] ;
516 -> 522 ;
523 [label="dst_host_count <= 3.5\ngini = 0.278\nsamples = 4\nvalue = [5, 0, 0, 1, 0]", fillcolor="#ea9a61"] ;
515 -> 523 ;
524 [label="gini = 0.0\nsamples = 3\nvalue = [5, 0, 0, 0, 0]", fillcolor="#e58139"] ;
523 -> 524 ;
525 [label="gini = 0.0\nsamples = 1\nvalue = [0, 0, 0, 1, 0]", fillcolor="#3c39e5"] ;
523 -> 525 ;
526 [label="gini = 0.0\nsamples = 2\nvalue = [2, 0, 0, 0, 0]", fillcolor="#e58139"] ;
514 -> 526 ;
527 [label="gini = 0.0\nsamples = 1\nvalue = [3, 0, 0, 0, 0]", fillcolor="#e58139"] ;
513 -> 527 ;
528 [label="dst_host_srv_count <= 38.0\ngini = 0.298\nsamples = 6\nvalue = [2, 0, 0, 9, 0]", fillcolor="#6765eb"] ;
510 -> 528 ;
529 [label="src_bytes <= 902.0\ngini = 0.444\nsamples = 2\nvalue = [2, 0, 0, 1, 0]", fillcolor="#f2c09c"] ;
528 -> 529 ;
530 [label="gini = 0.0\nsamples = 1\nvalue = [0, 0, 0, 1, 0]", fillcolor="#3c39e5"] ;
529 -> 530 ;
531 [label="gini = 0.0\nsamples = 1\nvalue = [2, 0, 0, 0, 0]", fillcolor="#e58139"] ;
529 -> 531 ;
532 [label="gini = 0.0\nsamples = 4\nvalue = [0, 0, 0, 8, 0]", fillcolor="#3c39e5"] ;
528 -> 532 ;
533 [label="dst_host_count <= 3.0\ngini = 0.018\nsamples = 75\nvalue = [0, 1, 0, 112, 0]", fillcolor="#3e3be5"] ;
509 -> 533 ;
534 [label="dst_host_srv_count <= 39.5\ngini = 0.056\nsamples = 22\nvalue = [0, 1, 0, 34, 0]", fillcolor="#423fe6"] ;
533 -> 534 ;
535 [label="gini = 0.0\nsamples = 19\nvalue = [0, 0, 0, 30, 0]", fillcolor="#3c39e5"] ;
534 -> 535 ;
536 [label="logged_in <= 0.5\ngini = 0.32\nsamples = 3\nvalue = [0, 1, 0, 4, 0]", fillcolor="#6d6aec"] ;
534 -> 536 ;
537 [label="gini = 0.0\nsamples = 1\nvalue = [0, 1, 0, 0, 0]", fillcolor="#7be539"] ;
536 -> 537 ;
538 [label="gini = 0.0\nsamples = 2\nvalue = [0, 0, 0, 4, 0]", fillcolor="#3c39e5"] ;
536 -> 538 ;
539 [label="gini = 0.0\nsamples = 53\nvalue = [0, 0, 0, 78, 0]", fillcolor="#3c39e5"] ;
533 -> 539 ;
540 [label="last_flag <= 17.5\ngini = 0.076\nsamples = 3371\nvalue = [5070, 181, 0, 28, 0]", fillcolor="#e68641"] ;
406 -> 540 ;
541 [label="protocol_type_tcp <= 0.5\ngini = 0.399\nsamples = 344\nvalue = [424, 116, 0, 28, 0]", fillcolor="#eda978"] ;
540 -> 541 ;
542 [label="src_bytes <= 367.5\ngini = 0.496\nsamples = 159\nvalue = [138, 116, 0, 0, 0]", fillcolor="#fbebdf"] ;
541 -> 542 ;
543 [label="gini = 0.0\nsamples = 84\nvalue = [138, 0, 0, 0, 0]", fillcolor="#e58139"] ;
542 -> 543 ;
544 [label="gini = 0.0\nsamples = 75\nvalue = [0, 116, 0, 0, 0]", fillcolor="#7be539"] ;
542 -> 544 ;
545 [label="dst_host_srv_count <= 39.5\ngini = 0.162\nsamples = 185\nvalue = [286, 0, 0, 28, 0]", fillcolor="#e88d4c"] ;
541 -> 545 ;
546 [label="dst_host_same_srv_rate <= 0.575\ngini = 0.27\nsamples = 100\nvalue = [141, 0, 0, 27, 0]", fillcolor="#ea995f"] ;
545 -> 546 ;
547 [label="gini = 0.0\nsamples = 81\nvalue = [138, 0, 0, 0, 0]", fillcolor="#e58139"] ;
546 -> 547 ;
548 [label="dst_host_count <= 1.5\ngini = 0.18\nsamples = 19\nvalue = [3, 0, 0, 27, 0]", fillcolor="#524fe8"] ;
546 -> 548 ;
549 [label="dst_host_srv_count <= 4.5\ngini = 0.5\nsamples = 3\nvalue = [3, 0, 0, 3, 0]", fillcolor="#ffffff"] ;
548 -> 549 ;
550 [label="gini = 0.0\nsamples = 2\nvalue = [0, 0, 0, 3, 0]", fillcolor="#3c39e5"] ;
549 -> 550 ;
551 [label="gini = 0.0\nsamples = 1\nvalue = [3, 0, 0, 0, 0]", fillcolor="#e58139"] ;
549 -> 551 ;
552 [label="gini = 0.0\nsamples = 16\nvalue = [0, 0, 0, 24, 0]", fillcolor="#3c39e5"] ;
548 -> 552 ;
553 [label="dst_host_same_srv_rate <= 0.99\ngini = 0.014\nsamples = 85\nvalue = [145, 0, 0, 1, 0]", fillcolor="#e5823a"] ;
545 -> 553 ;
554 [label="gini = 0.0\nsamples = 59\nvalue = [103, 0, 0, 0, 0]", fillcolor="#e58139"] ;
553 -> 554 ;
555 [label="srv_count <= 1.5\ngini = 0.045\nsamples = 26\nvalue = [42, 0, 0, 1, 0]", fillcolor="#e6843e"] ;
553 -> 555 ;
556 [label="dst_host_same_src_port_rate <= 0.75\ngini = 0.105\nsamples = 11\nvalue = [17, 0, 0, 1, 0]", fillcolor="#e78845"] ;
555 -> 556 ;
557 [label="gini = 0.0\nsamples = 4\nvalue = [6, 0, 0, 0, 0]", fillcolor="#e58139"] ;
556 -> 557 ;
558 [label="dst_host_count <= 2.0\ngini = 0.153\nsamples = 7\nvalue = [11, 0, 0, 1, 0]", fillcolor="#e78c4b"] ;
556 -> 558 ;
559 [label="gini = 0.0\nsamples = 5\nvalue = [9, 0, 0, 0, 0]", fillcolor="#e58139"] ;
558 -> 559 ;
560 [label="dst_host_count <= 5.0\ngini = 0.444\nsamples = 2\nvalue = [2, 0, 0, 1, 0]", fillcolor="#f2c09c"] ;
558 -> 560 ;
561 [label="gini = 0.0\nsamples = 1\nvalue = [0, 0, 0, 1, 0]", fillcolor="#3c39e5"] ;
560 -> 561 ;
562 [label="gini = 0.0\nsamples = 1\nvalue = [2, 0, 0, 0, 0]", fillcolor="#e58139"] ;
560 -> 562 ;
563 [label="gini = 0.0\nsamples = 15\nvalue = [25, 0, 0, 0, 0]", fillcolor="#e58139"] ;
555 -> 563 ;
564 [label="dst_host_srv_count <= 254.5\ngini = 0.027\nsamples = 3027\nvalue = [4646, 65, 0, 0, 0]", fillcolor="#e5833c"] ;
540 -> 564 ;
565 [label="srv_count <= 15.5\ngini = 0.015\nsamples = 2978\nvalue = [4600, 35, 0, 0, 0]", fillcolor="#e5823b"] ;
564 -> 565 ;
566 [label="dst_host_same_src_port_rate <= 0.065\ngini = 0.009\nsamples = 2770\nvalue = [4274, 20, 0, 0, 0]", fillcolor="#e5823a"] ;
565 -> 566 ;
567 [label="srv_count <= 11.5\ngini = 0.07\nsamples = 359\nvalue = [529, 20, 0, 0, 0]", fillcolor="#e68640"] ;
566 -> 567 ;
568 [label="src_bytes <= 1428.0\ngini = 0.057\nsamples = 353\nvalue = [526, 16, 0, 0, 0]", fillcolor="#e6853f"] ;
567 -> 568 ;
569 [label="gini = 0.0\nsamples = 307\nvalue = [473, 0, 0, 0, 0]", fillcolor="#e58139"] ;
568 -> 569 ;
570 [label="logged_in <= 0.5\ngini = 0.356\nsamples = 46\nvalue = [53, 16, 0, 0, 0]", fillcolor="#eda775"] ;
568 -> 570 ;
571 [label="dst_host_count <= 228.5\ngini = 0.496\nsamples = 21\nvalue = [19, 16, 0, 0, 0]", fillcolor="#fbebe0"] ;
570 -> 571 ;
572 [label="gini = 0.0\nsamples = 4\nvalue = [9, 0, 0, 0, 0]", fillcolor="#e58139"] ;
571 -> 572 ;
573 [label="srv_count <= 1.5\ngini = 0.473\nsamples = 17\nvalue = [10, 16, 0, 0, 0]", fillcolor="#cef5b5"] ;
571 -> 573 ;
574 [label="gini = 0.0\nsamples = 2\nvalue = [0, 4, 0, 0, 0]", fillcolor="#7be539"] ;
573 -> 574 ;
575 [label="src_bytes <= 1623.0\ngini = 0.496\nsamples = 15\nvalue = [10, 12, 0, 0, 0]", fillcolor="#e9fbde"] ;
573 -> 575 ;
576 [label="gini = 0.0\nsamples = 8\nvalue = [0, 12, 0, 0, 0]", fillcolor="#7be539"] ;
575 -> 576 ;
577 [label="gini = 0.0\nsamples = 7\nvalue = [10, 0, 0, 0, 0]", fillcolor="#e58139"] ;
575 -> 577 ;
578 [label="gini = 0.0\nsamples = 25\nvalue = [34, 0, 0, 0, 0]", fillcolor="#e58139"] ;
570 -> 578 ;
579 [label="protocol_type_icmp <= 0.5\ngini = 0.49\nsamples = 6\nvalue = [3, 4, 0, 0, 0]", fillcolor="#def8ce"] ;
567 -> 579 ;
580 [label="gini = 0.0\nsamples = 3\nvalue = [3, 0, 0, 0, 0]", fillcolor="#e58139"] ;
579 -> 580 ;
581 [label="gini = 0.0\nsamples = 3\nvalue = [0, 4, 0, 0, 0]", fillcolor="#7be539"] ;
579 -> 581 ;
582 [label="gini = 0.0\nsamples = 2411\nvalue = [3745, 0, 0, 0, 0]", fillcolor="#e58139"] ;
566 -> 582 ;
583 [label="dst_host_srv_count <= 21.5\ngini = 0.084\nsamples = 208\nvalue = [326, 15, 0, 0, 0]", fillcolor="#e68742"] ;
565 -> 583 ;
584 [label="protocol_type_udp <= 0.5\ngini = 0.499\nsamples = 16\nvalue = [13, 14, 0, 0, 0]", fillcolor="#f6fdf1"] ;
583 -> 584 ;
585 [label="protocol_type_tcp <= 0.5\ngini = 0.124\nsamples = 8\nvalue = [1, 14, 0, 0, 0]", fillcolor="#84e747"] ;
584 -> 585 ;
586 [label="gini = 0.0\nsamples = 7\nvalue = [0, 14, 0, 0, 0]", fillcolor="#7be539"] ;
585 -> 586 ;
587 [label="gini = 0.0\nsamples = 1\nvalue = [1, 0, 0, 0, 0]", fillcolor="#e58139"] ;
585 -> 587 ;
588 [label="gini = 0.0\nsamples = 8\nvalue = [12, 0, 0, 0, 0]", fillcolor="#e58139"] ;
584 -> 588 ;
589 [label="protocol_type_tcp <= 0.5\ngini = 0.006\nsamples = 192\nvalue = [313, 1, 0, 0, 0]", fillcolor="#e5813a"] ;
583 -> 589 ;
590 [label="dst_host_same_src_port_rate <= 0.1\ngini = 0.08\nsamples = 15\nvalue = [23, 1, 0, 0, 0]", fillcolor="#e68642"] ;
589 -> 590 ;
591 [label="dst_host_diff_srv_rate <= 0.04\ngini = 0.219\nsamples = 5\nvalue = [7, 1, 0, 0, 0]", fillcolor="#e99355"] ;
590 -> 591 ;
592 [label="dst_host_srv_count <= 122.5\ngini = 0.444\nsamples = 2\nvalue = [2, 1, 0, 0, 0]", fillcolor="#f2c09c"] ;
591 -> 592 ;
593 [label="gini = 0.0\nsamples = 1\nvalue = [0, 1, 0, 0, 0]", fillcolor="#7be539"] ;
592 -> 593 ;
594 [label="gini = 0.0\nsamples = 1\nvalue = [2, 0, 0, 0, 0]", fillcolor="#e58139"] ;
592 -> 594 ;
595 [label="gini = 0.0\nsamples = 3\nvalue = [5, 0, 0, 0, 0]", fillcolor="#e58139"] ;
591 -> 595 ;
596 [label="gini = 0.0\nsamples = 10\nvalue = [16, 0, 0, 0, 0]", fillcolor="#e58139"] ;
590 -> 596 ;
597 [label="gini = 0.0\nsamples = 177\nvalue = [290, 0, 0, 0, 0]", fillcolor="#e58139"] ;
589 -> 597 ;
598 [label="protocol_type_icmp <= 0.5\ngini = 0.478\nsamples = 49\nvalue = [46, 30, 0, 0, 0]", fillcolor="#f6d3ba"] ;
564 -> 598 ;
599 [label="gini = 0.0\nsamples = 29\nvalue = [45, 0, 0, 0, 0]", fillcolor="#e58139"] ;
598 -> 599 ;
600 [label="srv_count <= 3.0\ngini = 0.062\nsamples = 20\nvalue = [1, 30, 0, 0, 0]", fillcolor="#7fe640"] ;
598 -> 600 ;
601 [label="gini = 0.0\nsamples = 1\nvalue = [1, 0, 0, 0, 0]", fillcolor="#e58139"] ;
600 -> 601 ;
602 [label="gini = 0.0\nsamples = 19\nvalue = [0, 30, 0, 0, 0]", fillcolor="#7be539"] ;
600 -> 602 ;
603 [label="src_bytes <= 518.0\ngini = 0.011\nsamples = 1209\nvalue = [11, 1936, 0, 0, 0]", fillcolor="#7ce53a"] ;
405 -> 603 ;
604 [label="gini = 0.0\nsamples = 7\nvalue = [10, 0, 0, 0, 0]", fillcolor="#e58139"] ;
603 -> 604 ;
605 [label="src_bytes <= 998.5\ngini = 0.001\nsamples = 1202\nvalue = [1, 1936, 0, 0, 0]", fillcolor="#7be539"] ;
603 -> 605 ;
606 [label="srv_count <= 36.0\ngini = 0.004\nsamples = 281\nvalue = [1, 448, 0, 0, 0]", fillcolor="#7be539"] ;
605 -> 606 ;
607 [label="gini = 0.0\nsamples = 1\nvalue = [1, 0, 0, 0, 0]", fillcolor="#e58139"] ;
606 -> 607 ;
608 [label="gini = 0.0\nsamples = 280\nvalue = [0, 448, 0, 0, 0]", fillcolor="#7be539"] ;
606 -> 608 ;
609 [label="gini = 0.0\nsamples = 921\nvalue = [0, 1488, 0, 0, 0]", fillcolor="#7be539"] ;
605 -> 609 ;
610 [label="dst_host_srv_diff_host_rate <= 0.005\ngini = 0.048\nsamples = 27093\nvalue = [41925, 736, 8, 284, 16]", fillcolor="#e6843e"] ;
404 -> 610 ;
611 [label="dst_bytes <= 8310.0\ngini = 0.089\nsamples = 14192\nvalue = [21401, 736, 7, 284, 13]", fillcolor="#e68742"] ;
610 -> 611 ;
612 [label="dst_host_same_srv_rate <= 0.565\ngini = 0.034\nsamples = 12762\nvalue = [19817, 52, 7, 273, 12]", fillcolor="#e5833c"] ;
611 -> 612 ;
613 [label="src_bytes <= 1016.0\ngini = 0.133\nsamples = 2224\nvalue = [3187, 1, 7, 236, 2]", fillcolor="#e78b48"] ;
612 -> 613 ;
614 [label="rerror_rate <= 0.365\ngini = 0.02\nsamples = 1491\nvalue = [2286, 0, 6, 15, 2]", fillcolor="#e5823b"] ;
613 -> 614 ;
615 [label="dst_host_srv_count <= 139.5\ngini = 0.017\nsamples = 1460\nvalue = [2244, 0, 4, 13, 2]", fillcolor="#e5823b"] ;
614 -> 615 ;
616 [label="dst_bytes <= 1198.0\ngini = 0.014\nsamples = 1450\nvalue = [2234, 0, 4, 10, 2]", fillcolor="#e5823a"] ;
615 -> 616 ;
617 [label="dst_host_srv_count <= 2.5\ngini = 0.006\nsamples = 1252\nvalue = [1939, 0, 4, 2, 0]", fillcolor="#e5813a"] ;
616 -> 617 ;
618 [label="src_bytes <= 103.5\ngini = 0.012\nsamples = 636\nvalue = [984, 0, 4, 2, 0]", fillcolor="#e5823a"] ;
617 -> 618 ;
619 [label="last_flag <= 11.5\ngini = 0.187\nsamples = 37\nvalue = [53, 0, 4, 2, 0]", fillcolor="#e88f4f"] ;
618 -> 619 ;
620 [label="logged_in <= 0.5\ngini = 0.444\nsamples = 4\nvalue = [0, 0, 4, 2, 0]", fillcolor="#9cf2e2"] ;
619 -> 620 ;
621 [label="gini = 0.0\nsamples = 3\nvalue = [0, 0, 4, 0, 0]", fillcolor="#39e5c5"] ;
620 -> 621 ;
622 [label="gini = 0.0\nsamples = 1\nvalue = [0, 0, 0, 2, 0]", fillcolor="#3c39e5"] ;
620 -> 622 ;
623 [label="gini = 0.0\nsamples = 33\nvalue = [53, 0, 0, 0, 0]", fillcolor="#e58139"] ;
619 -> 623 ;
624 [label="gini = 0.0\nsamples = 599\nvalue = [931, 0, 0, 0, 0]", fillcolor="#e58139"] ;
618 -> 624 ;
625 [label="gini = 0.0\nsamples = 616\nvalue = [955, 0, 0, 0, 0]", fillcolor="#e58139"] ;
617 -> 625 ;
626 [label="last_flag <= 6.5\ngini = 0.064\nsamples = 198\nvalue = [295, 0, 0, 8, 2]", fillcolor="#e68540"] ;
616 -> 626 ;
627 [label="last_flag <= 4.5\ngini = 0.32\nsamples = 7\nvalue = [0, 0, 0, 8, 2]", fillcolor="#6d6aec"] ;
626 -> 627 ;
628 [label="gini = 0.0\nsamples = 3\nvalue = [0, 0, 0, 4, 0]", fillcolor="#3c39e5"] ;
627 -> 628 ;
629 [label="src_bytes <= 265.5\ngini = 0.444\nsamples = 4\nvalue = [0, 0, 0, 4, 2]", fillcolor="#9e9cf2"] ;
627 -> 629 ;
630 [label="gini = 0.0\nsamples = 1\nvalue = [0, 0, 0, 2, 0]", fillcolor="#3c39e5"] ;
629 -> 630 ;
631 [label="dst_bytes <= 2565.5\ngini = 0.5\nsamples = 3\nvalue = [0, 0, 0, 2, 2]", fillcolor="#ffffff"] ;
629 -> 631 ;
632 [label="gini = 0.0\nsamples = 2\nvalue = [0, 0, 0, 2, 0]", fillcolor="#3c39e5"] ;
631 -> 632 ;
633 [label="gini = 0.0\nsamples = 1\nvalue = [0, 0, 0, 0, 2]", fillcolor="#e539c0"] ;
631 -> 633 ;
634 [label="gini = 0.0\nsamples = 191\nvalue = [295, 0, 0, 0, 0]", fillcolor="#e58139"] ;
626 -> 634 ;
635 [label="src_bytes <= 488.5\ngini = 0.355\nsamples = 10\nvalue = [10, 0, 0, 3, 0]", fillcolor="#eda774"] ;
615 -> 635 ;
636 [label="dst_host_same_src_port_rate <= 0.28\ngini = 0.5\nsamples = 5\nvalue = [3, 0, 0, 3, 0]", fillcolor="#ffffff"] ;
635 -> 636 ;
637 [label="gini = 0.0\nsamples = 3\nvalue = [0, 0, 0, 3, 0]", fillcolor="#3c39e5"] ;
636 -> 637 ;
638 [label="gini = 0.0\nsamples = 2\nvalue = [3, 0, 0, 0, 0]", fillcolor="#e58139"] ;
636 -> 638 ;
639 [label="gini = 0.0\nsamples = 5\nvalue = [7, 0, 0, 0, 0]", fillcolor="#e58139"] ;
635 -> 639 ;
640 [label="src_bytes <= 59.0\ngini = 0.163\nsamples = 31\nvalue = [42, 0, 2, 2, 0]", fillcolor="#e78c4b"] ;
614 -> 640 ;
641 [label="flag_SF <= 0.5\ngini = 0.444\nsamples = 3\nvalue = [1, 0, 2, 0, 0]", fillcolor="#9cf2e2"] ;
640 -> 641 ;
642 [label="gini = 0.0\nsamples = 1\nvalue = [1, 0, 0, 0, 0]", fillcolor="#e58139"] ;
641 -> 642 ;
643 [label="gini = 0.0\nsamples = 2\nvalue = [0, 0, 2, 0, 0]", fillcolor="#39e5c5"] ;
641 -> 643 ;
644 [label="dst_host_same_src_port_rate <= 0.005\ngini = 0.089\nsamples = 28\nvalue = [41, 0, 0, 2, 0]", fillcolor="#e68743"] ;
640 -> 644 ;
645 [label="dst_host_diff_srv_rate <= 0.045\ngini = 0.48\nsamples = 3\nvalue = [3, 0, 0, 2, 0]", fillcolor="#f6d5bd"] ;
644 -> 645 ;
646 [label="gini = 0.0\nsamples = 1\nvalue = [0, 0, 0, 2, 0]", fillcolor="#3c39e5"] ;
645 -> 646 ;
647 [label="gini = 0.0\nsamples = 2\nvalue = [3, 0, 0, 0, 0]", fillcolor="#e58139"] ;
645 -> 647 ;
648 [label="gini = 0.0\nsamples = 25\nvalue = [38, 0, 0, 0, 0]", fillcolor="#e58139"] ;
644 -> 648 ;
649 [label="last_flag <= 13.5\ngini = 0.319\nsamples = 733\nvalue = [901, 1, 1, 221, 0]", fillcolor="#eba06a"] ;
613 -> 649 ;
650 [label="serror_rate <= 0.5\ngini = 0.058\nsamples = 133\nvalue = [4, 1, 1, 197, 0]", fillcolor="#423fe6"] ;
649 -> 650 ;
651 [label="rerror_rate <= 0.75\ngini = 0.03\nsamples = 131\nvalue = [1, 1, 1, 197, 0]", fillcolor="#3f3ce5"] ;
650 -> 651 ;
652 [label="dst_host_srv_count <= 1.5\ngini = 0.01\nsamples = 129\nvalue = [0, 0, 1, 197, 0]", fillcolor="#3d3ae5"] ;
651 -> 652 ;
653 [label="dst_host_diff_srv_rate <= 0.265\ngini = 0.444\nsamples = 2\nvalue = [0, 0, 1, 2, 0]", fillcolor="#9e9cf2"] ;
652 -> 653 ;
654 [label="gini = 0.0\nsamples = 1\nvalue = [0, 0, 0, 2, 0]", fillcolor="#3c39e5"] ;
653 -> 654 ;
655 [label="gini = 0.0\nsamples = 1\nvalue = [0, 0, 1, 0, 0]", fillcolor="#39e5c5"] ;
653 -> 655 ;
656 [label="gini = 0.0\nsamples = 127\nvalue = [0, 0, 0, 195, 0]", fillcolor="#3c39e5"] ;
652 -> 656 ;
657 [label="diff_srv_rate <= 0.075\ngini = 0.5\nsamples = 2\nvalue = [1, 1, 0, 0, 0]", fillcolor="#ffffff"] ;
651 -> 657 ;
658 [label="gini = 0.0\nsamples = 1\nvalue = [0, 1, 0, 0, 0]", fillcolor="#7be539"] ;
657 -> 658 ;
659 [label="gini = 0.0\nsamples = 1\nvalue = [1, 0, 0, 0, 0]", fillcolor="#e58139"] ;
657 -> 659 ;
660 [label="gini = 0.0\nsamples = 2\nvalue = [3, 0, 0, 0, 0]", fillcolor="#e58139"] ;
650 -> 660 ;
661 [label="dst_host_srv_count <= 84.5\ngini = 0.051\nsamples = 600\nvalue = [897, 0, 0, 24, 0]", fillcolor="#e6843e"] ;
649 -> 661 ;
662 [label="gini = 0.0\nsamples = 447\nvalue = [685, 0, 0, 0, 0]", fillcolor="#e58139"] ;
661 -> 662 ;
663 [label="dst_host_same_srv_rate <= 0.435\ngini = 0.183\nsamples = 153\nvalue = [212, 0, 0, 24, 0]", fillcolor="#e88f4f"] ;
661 -> 663 ;
664 [label="last_flag <= 15.5\ngini = 0.375\nsamples = 46\nvalue = [57, 0, 0, 19, 0]", fillcolor="#eeab7b"] ;
663 -> 664 ;
665 [label="dst_host_diff_srv_rate <= 0.035\ngini = 0.172\nsamples = 10\nvalue = [2, 0, 0, 19, 0]", fillcolor="#514ee8"] ;
664 -> 665 ;
666 [label="gini = 0.0\nsamples = 9\nvalue = [0, 0, 0, 19, 0]", fillcolor="#3c39e5"] ;
665 -> 666 ;
667 [label="gini = 0.0\nsamples = 1\nvalue = [2, 0, 0, 0, 0]", fillcolor="#e58139"] ;
665 -> 667 ;
668 [label="gini = 0.0\nsamples = 36\nvalue = [55, 0, 0, 0, 0]", fillcolor="#e58139"] ;
664 -> 668 ;
669 [label="last_flag <= 17.0\ngini = 0.061\nsamples = 107\nvalue = [155, 0, 0, 5, 0]", fillcolor="#e6853f"] ;
663 -> 669 ;
670 [label="src_bytes <= 1284.5\ngini = 0.229\nsamples = 27\nvalue = [33, 0, 0, 5, 0]", fillcolor="#e99457"] ;
669 -> 670 ;
671 [label="last_flag <= 14.5\ngini = 0.469\nsamples = 6\nvalue = [3, 0, 0, 5, 0]", fillcolor="#b1b0f5"] ;
670 -> 671 ;
672 [label="gini = 0.0\nsamples = 1\nvalue = [1, 0, 0, 0, 0]", fillcolor="#e58139"] ;
671 -> 672 ;
673 [label="dst_host_srv_count <= 127.0\ngini = 0.408\nsamples = 5\nvalue = [2, 0, 0, 5, 0]", fillcolor="#8a88ef"] ;
671 -> 673 ;
674 [label="gini = 0.0\nsamples = 4\nvalue = [0, 0, 0, 5, 0]", fillcolor="#3c39e5"] ;
673 -> 674 ;
675 [label="gini = 0.0\nsamples = 1\nvalue = [2, 0, 0, 0, 0]", fillcolor="#e58139"] ;
673 -> 675 ;
676 [label="gini = 0.0\nsamples = 21\nvalue = [30, 0, 0, 0, 0]", fillcolor="#e58139"] ;
670 -> 676 ;
677 [label="gini = 0.0\nsamples = 80\nvalue = [122, 0, 0, 0, 0]", fillcolor="#e58139"] ;
669 -> 677 ;
678 [label="dst_host_diff_srv_rate <= 0.45\ngini = 0.012\nsamples = 10538\nvalue = [16630, 51, 0, 37, 10]", fillcolor="#e5823a"] ;
612 -> 678 ;
679 [label="dst_bytes <= 7299.5\ngini = 0.011\nsamples = 10532\nvalue = [16623, 51, 0, 37, 7]", fillcolor="#e5823a"] ;
678 -> 679 ;
680 [label="dst_host_count <= 50.5\ngini = 0.008\nsamples = 10405\nvalue = [16467, 23, 0, 36, 7]", fillcolor="#e5823a"] ;
679 -> 680 ;
681 [label="dst_host_srv_count <= 49.5\ngini = 0.163\nsamples = 344\nvalue = [479, 3, 0, 36, 7]", fillcolor="#e78d4c"] ;
680 -> 681 ;
682 [label="src_bytes <= 11744.0\ngini = 0.157\nsamples = 343\nvalue = [479, 3, 0, 34, 7]", fillcolor="#e78c4b"] ;
681 -> 682 ;
683 [label="dst_host_same_srv_rate <= 0.99\ngini = 0.147\nsamples = 341\nvalue = [479, 0, 0, 34, 7]", fillcolor="#e78c4a"] ;
682 -> 683 ;
684 [label="gini = 0.0\nsamples = 161\nvalue = [242, 0, 0, 0, 0]", fillcolor="#e58139"] ;
683 -> 684 ;
685 [label="rerror_rate <= 0.25\ngini = 0.258\nsamples = 180\nvalue = [237, 0, 0, 34, 7]", fillcolor="#e9965a"] ;
683 -> 685 ;
686 [label="service_http <= 0.5\ngini = 0.071\nsamples = 161\nvalue = [237, 0, 0, 2, 7]", fillcolor="#e68640"] ;
685 -> 686 ;
687 [label="src_bytes <= 1536.0\ngini = 0.14\nsamples = 81\nvalue = [112, 0, 0, 2, 7]", fillcolor="#e78b49"] ;
686 -> 687 ;
688 [label="dst_bytes <= 154.5\ngini = 0.057\nsamples = 68\nvalue = [99, 0, 0, 2, 1]", fillcolor="#e6853f"] ;
687 -> 688 ;
689 [label="gini = 0.0\nsamples = 37\nvalue = [59, 0, 0, 0, 0]", fillcolor="#e58139"] ;
688 -> 689 ;
690 [label="dst_bytes <= 219.5\ngini = 0.132\nsamples = 31\nvalue = [40, 0, 0, 2, 1]", fillcolor="#e78a47"] ;
688 -> 690 ;
691 [label="gini = 0.0\nsamples = 1\nvalue = [0, 0, 0, 1, 0]", fillcolor="#3c39e5"] ;
690 -> 691 ;
692 [label="last_flag <= 12.0\ngini = 0.092\nsamples = 30\nvalue = [40, 0, 0, 1, 1]", fillcolor="#e68743"] ;
690 -> 692 ;
693 [label="last_flag <= 5.5\ngini = 0.5\nsamples = 2\nvalue = [0, 0, 0, 1, 1]", fillcolor="#ffffff"] ;
692 -> 693 ;
694 [label="gini = 0.0\nsamples = 1\nvalue = [0, 0, 0, 0, 1]", fillcolor="#e539c0"] ;
693 -> 694 ;
695 [label="gini = 0.0\nsamples = 1\nvalue = [0, 0, 0, 1, 0]", fillcolor="#3c39e5"] ;
693 -> 695 ;
696 [label="gini = 0.0\nsamples = 28\nvalue = [40, 0, 0, 0, 0]", fillcolor="#e58139"] ;
692 -> 696 ;
697 [label="dst_bytes <= 1567.0\ngini = 0.432\nsamples = 13\nvalue = [13, 0, 0, 0, 6]", fillcolor="#f1bb94"] ;
687 -> 697 ;
698 [label="gini = 0.0\nsamples = 6\nvalue = [12, 0, 0, 0, 0]", fillcolor="#e58139"] ;
697 -> 698 ;
699 [label="count <= 42.0\ngini = 0.245\nsamples = 7\nvalue = [1, 0, 0, 0, 6]", fillcolor="#e95acb"] ;
697 -> 699 ;
700 [label="src_bytes <= 1697.5\ngini = 0.278\nsamples = 6\nvalue = [1, 0, 0, 0, 5]", fillcolor="#ea61cd"] ;
699 -> 700 ;
701 [label="gini = 0.0\nsamples = 3\nvalue = [0, 0, 0, 0, 3]", fillcolor="#e539c0"] ;
700 -> 701 ;
702 [label="dst_bytes <= 5301.5\ngini = 0.444\nsamples = 3\nvalue = [1, 0, 0, 0, 2]", fillcolor="#f29ce0"] ;
700 -> 702 ;
703 [label="gini = 0.0\nsamples = 2\nvalue = [0, 0, 0, 0, 2]", fillcolor="#e539c0"] ;
702 -> 703 ;
704 [label="gini = 0.0\nsamples = 1\nvalue = [1, 0, 0, 0, 0]", fillcolor="#e58139"] ;
702 -> 704 ;
705 [label="gini = 0.0\nsamples = 1\nvalue = [0, 0, 0, 0, 1]", fillcolor="#e539c0"] ;
699 -> 705 ;
706 [label="gini = 0.0\nsamples = 80\nvalue = [125, 0, 0, 0, 0]", fillcolor="#e58139"] ;
686 -> 706 ;
707 [label="gini = 0.0\nsamples = 19\nvalue = [0, 0, 0, 32, 0]", fillcolor="#3c39e5"] ;
685 -> 707 ;
708 [label="gini = 0.0\nsamples = 2\nvalue = [0, 3, 0, 0, 0]", fillcolor="#7be539"] ;
682 -> 708 ;
709 [label="gini = 0.0\nsamples = 1\nvalue = [0, 0, 0, 2, 0]", fillcolor="#3c39e5"] ;
681 -> 709 ;
710 [label="service_http <= 0.5\ngini = 0.002\nsamples = 10061\nvalue = [15988, 20, 0, 0, 0]", fillcolor="#e58139"] ;
680 -> 710 ;
711 [label="gini = 0.0\nsamples = 4780\nvalue = [7590, 0, 0, 0, 0]", fillcolor="#e58139"] ;
710 -> 711 ;
712 [label="dst_host_count <= 135.0\ngini = 0.005\nsamples = 5281\nvalue = [8398, 20, 0, 0, 0]", fillcolor="#e58139"] ;
710 -> 712 ;
713 [label="srv_count <= 4.5\ngini = 0.056\nsamples = 70\nvalue = [102, 3, 0, 0, 0]", fillcolor="#e6853f"] ;
712 -> 713 ;
714 [label="last_flag <= 13.0\ngini = 0.191\nsamples = 19\nvalue = [25, 3, 0, 0, 0]", fillcolor="#e89051"] ;
713 -> 714 ;
715 [label="gini = 0.0\nsamples = 2\nvalue = [0, 3, 0, 0, 0]", fillcolor="#7be539"] ;
714 -> 715 ;
716 [label="gini = 0.0\nsamples = 17\nvalue = [25, 0, 0, 0, 0]", fillcolor="#e58139"] ;
714 -> 716 ;
717 [label="gini = 0.0\nsamples = 51\nvalue = [77, 0, 0, 0, 0]", fillcolor="#e58139"] ;
713 -> 717 ;
718 [label="dst_host_srv_count <= 254.5\ngini = 0.004\nsamples = 5211\nvalue = [8296, 17, 0, 0, 0]", fillcolor="#e58139"] ;
712 -> 718 ;
719 [label="gini = 0.0\nsamples = 673\nvalue = [1119, 0, 0, 0, 0]", fillcolor="#e58139"] ;
718 -> 719 ;
720 [label="last_flag <= 14.0\ngini = 0.005\nsamples = 4538\nvalue = [7177, 17, 0, 0, 0]", fillcolor="#e58139"] ;
718 -> 720 ;
721 [label="gini = 0.0\nsamples = 7\nvalue = [0, 17, 0, 0, 0]", fillcolor="#7be539"] ;
720 -> 721 ;
722 [label="gini = 0.0\nsamples = 4531\nvalue = [7177, 0, 0, 0, 0]", fillcolor="#e58139"] ;
720 -> 722 ;
723 [label="dst_host_count <= 236.5\ngini = 0.266\nsamples = 127\nvalue = [156, 28, 0, 1, 0]", fillcolor="#ea985e"] ;
679 -> 723 ;
724 [label="dst_bytes <= 7365.5\ngini = 0.492\nsamples = 12\nvalue = [7, 9, 0, 0, 0]", fillcolor="#e2f9d3"] ;
723 -> 724 ;
725 [label="gini = 0.0\nsamples = 5\nvalue = [0, 9, 0, 0, 0]", fillcolor="#7be539"] ;
724 -> 725 ;
726 [label="gini = 0.0\nsamples = 7\nvalue = [7, 0, 0, 0, 0]", fillcolor="#e58139"] ;
724 -> 726 ;
727 [label="dst_host_diff_srv_rate <= 0.005\ngini = 0.21\nsamples = 115\nvalue = [149, 19, 0, 1, 0]", fillcolor="#e89253"] ;
723 -> 727 ;
728 [label="dst_bytes <= 7314.5\ngini = 0.221\nsamples = 104\nvalue = [131, 19, 0, 0, 0]", fillcolor="#e99356"] ;
727 -> 728 ;
729 [label="gini = 0.0\nsamples = 11\nvalue = [0, 19, 0, 0, 0]", fillcolor="#7be539"] ;
728 -> 729 ;
730 [label="gini = 0.0\nsamples = 93\nvalue = [131, 0, 0, 0, 0]", fillcolor="#e58139"] ;
728 -> 730 ;
731 [label="src_bytes <= 115.0\ngini = 0.1\nsamples = 11\nvalue = [18, 0, 0, 1, 0]", fillcolor="#e68844"] ;
727 -> 731 ;
732 [label="gini = 0.0\nsamples = 1\nvalue = [0, 0, 0, 1, 0]", fillcolor="#3c39e5"] ;
731 -> 732 ;
733 [label="gini = 0.0\nsamples = 10\nvalue = [18, 0, 0, 0, 0]", fillcolor="#e58139"] ;
731 -> 733 ;
734 [label="dst_bytes <= 1026.0\ngini = 0.42\nsamples = 6\nvalue = [7, 0, 0, 0, 3]", fillcolor="#f0b78e"] ;
678 -> 734 ;
735 [label="gini = 0.0\nsamples = 4\nvalue = [7, 0, 0, 0, 0]", fillcolor="#e58139"] ;
734 -> 735 ;
736 [label="gini = 0.0\nsamples = 2\nvalue = [0, 0, 0, 0, 3]", fillcolor="#e539c0"] ;
734 -> 736 ;
737 [label="dst_bytes <= 8334.5\ngini = 0.427\nsamples = 1430\nvalue = [1584, 684, 0, 11, 1]", fillcolor="#f0b88f"] ;
611 -> 737 ;
738 [label="dst_host_same_srv_rate <= 0.97\ngini = 0.006\nsamples = 439\nvalue = [2, 684, 0, 0, 0]", fillcolor="#7be53a"] ;
737 -> 738 ;
739 [label="gini = 0.0\nsamples = 1\nvalue = [2, 0, 0, 0, 0]", fillcolor="#e58139"] ;
738 -> 739 ;
740 [label="gini = 0.0\nsamples = 438\nvalue = [0, 684, 0, 0, 0]", fillcolor="#7be539"] ;
738 -> 740 ;
741 [label="dst_host_count <= 2.5\ngini = 0.015\nsamples = 991\nvalue = [1582, 0, 0, 11, 1]", fillcolor="#e5823b"] ;
737 -> 741 ;
742 [label="count <= 1.5\ngini = 0.407\nsamples = 16\nvalue = [22, 0, 0, 7, 1]", fillcolor="#eead7e"] ;
741 -> 742 ;
743 [label="rerror_rate <= 0.5\ngini = 0.492\nsamples = 13\nvalue = [14, 0, 0, 7, 1]", fillcolor="#f3c4a3"] ;
742 -> 743 ;
744 [label="dst_bytes <= 43551.0\ngini = 0.503\nsamples = 12\nvalue = [13, 0, 0, 7, 1]", fillcolor="#f4c9aa"] ;
743 -> 744 ;
745 [label="last_flag <= 12.0\ngini = 0.556\nsamples = 7\nvalue = [5, 0, 0, 7, 1]", fillcolor="#cecef8"] ;
744 -> 745 ;
746 [label="dst_host_diff_srv_rate <= 0.5\ngini = 0.219\nsamples = 4\nvalue = [0, 0, 0, 7, 1]", fillcolor="#5855e9"] ;
745 -> 746 ;
747 [label="last_flag <= 0.5\ngini = 0.32\nsamples = 3\nvalue = [0, 0, 0, 4, 1]", fillcolor="#6d6aec"] ;
746 -> 747 ;
748 [label="gini = 0.0\nsamples = 1\nvalue = [0, 0, 0, 0, 1]", fillcolor="#e539c0"] ;
747 -> 748 ;
749 [label="gini = 0.0\nsamples = 2\nvalue = [0, 0, 0, 4, 0]", fillcolor="#3c39e5"] ;
747 -> 749 ;
750 [label="gini = 0.0\nsamples = 1\nvalue = [0, 0, 0, 3, 0]", fillcolor="#3c39e5"] ;
746 -> 750 ;
751 [label="gini = 0.0\nsamples = 3\nvalue = [5, 0, 0, 0, 0]", fillcolor="#e58139"] ;
745 -> 751 ;
752 [label="gini = 0.0\nsamples = 5\nvalue = [8, 0, 0, 0, 0]", fillcolor="#e58139"] ;
744 -> 752 ;
753 [label="gini = 0.0\nsamples = 1\nvalue = [1, 0, 0, 0, 0]", fillcolor="#e58139"] ;
743 -> 753 ;
754 [label="gini = 0.0\nsamples = 3\nvalue = [8, 0, 0, 0, 0]", fillcolor="#e58139"] ;
742 -> 754 ;
755 [label="dst_host_same_src_port_rate <= 0.08\ngini = 0.005\nsamples = 975\nvalue = [1560, 0, 0, 4, 0]", fillcolor="#e5813a"] ;
741 -> 755 ;
756 [label="service_http <= 0.5\ngini = 0.003\nsamples = 956\nvalue = [1527, 0, 0, 2, 0]", fillcolor="#e58139"] ;
755 -> 756 ;
757 [label="dst_host_srv_count <= 1.5\ngini = 0.011\nsamples = 223\nvalue = [348, 0, 0, 2, 0]", fillcolor="#e5823a"] ;
756 -> 757 ;
758 [label="same_srv_rate <= 0.75\ngini = 0.105\nsamples = 23\nvalue = [34, 0, 0, 2, 0]", fillcolor="#e78845"] ;
757 -> 758 ;
759 [label="gini = 0.0\nsamples = 4\nvalue = [9, 0, 0, 0, 0]", fillcolor="#e58139"] ;
758 -> 759 ;
760 [label="dst_host_same_srv_rate <= 0.005\ngini = 0.137\nsamples = 19\nvalue = [25, 0, 0, 2, 0]", fillcolor="#e78b49"] ;
758 -> 760 ;
761 [label="src_bytes <= 1105.5\ngini = 0.278\nsamples = 9\nvalue = [10, 0, 0, 2, 0]", fillcolor="#ea9a61"] ;
760 -> 761 ;
762 [label="gini = 0.0\nsamples = 8\nvalue = [10, 0, 0, 0, 0]", fillcolor="#e58139"] ;
761 -> 762 ;
763 [label="gini = 0.0\nsamples = 1\nvalue = [0, 0, 0, 2, 0]", fillcolor="#3c39e5"] ;
761 -> 763 ;
764 [label="gini = 0.0\nsamples = 10\nvalue = [15, 0, 0, 0, 0]", fillcolor="#e58139"] ;
760 -> 764 ;
765 [label="gini = 0.0\nsamples = 200\nvalue = [314, 0, 0, 0, 0]", fillcolor="#e58139"] ;
757 -> 765 ;
766 [label="gini = 0.0\nsamples = 733\nvalue = [1179, 0, 0, 0, 0]", fillcolor="#e58139"] ;
756 -> 766 ;
767 [label="dst_host_srv_count <= 10.0\ngini = 0.108\nsamples = 19\nvalue = [33, 0, 0, 2, 0]", fillcolor="#e78945"] ;
755 -> 767 ;
768 [label="gini = 0.0\nsamples = 18\nvalue = [33, 0, 0, 0, 0]", fillcolor="#e58139"] ;
767 -> 768 ;
769 [label="gini = 0.0\nsamples = 1\nvalue = [0, 0, 0, 2, 0]", fillcolor="#3c39e5"] ;
767 -> 769 ;
770 [label="dst_host_same_src_port_rate <= 0.43\ngini = 0.0\nsamples = 12901\nvalue = [20524, 0, 1, 0, 3]", fillcolor="#e58139"] ;
610 -> 770 ;
771 [label="last_flag <= 6.0\ngini = 0.0\nsamples = 12154\nvalue = [19343, 0, 1, 0, 0]", fillcolor="#e58139"] ;
770 -> 771 ;
772 [label="gini = 0.0\nsamples = 1\nvalue = [0, 0, 1, 0, 0]", fillcolor="#39e5c5"] ;
771 -> 772 ;
773 [label="gini = 0.0\nsamples = 12153\nvalue = [19343, 0, 0, 0, 0]", fillcolor="#e58139"] ;
771 -> 773 ;
774 [label="dst_host_srv_diff_host_rate <= 0.465\ngini = 0.005\nsamples = 747\nvalue = [1181, 0, 0, 0, 3]", fillcolor="#e5813a"] ;
770 -> 774 ;
775 [label="gini = 0.0\nsamples = 711\nvalue = [1121, 0, 0, 0, 0]", fillcolor="#e58139"] ;
774 -> 775 ;
776 [label="dst_host_srv_count <= 3.5\ngini = 0.091\nsamples = 36\nvalue = [60, 0, 0, 0, 3]", fillcolor="#e68743"] ;
774 -> 776 ;
777 [label="gini = 0.0\nsamples = 17\nvalue = [30, 0, 0, 0, 0]", fillcolor="#e58139"] ;
776 -> 777 ;
778 [label="dst_host_same_src_port_rate <= 0.75\ngini = 0.165\nsamples = 19\nvalue = [30, 0, 0, 0, 3]", fillcolor="#e88e4d"] ;
776 -> 778 ;
779 [label="count <= 1.5\ngini = 0.375\nsamples = 2\nvalue = [1, 0, 0, 0, 3]", fillcolor="#ee7bd5"] ;
778 -> 779 ;
780 [label="gini = 0.0\nsamples = 1\nvalue = [0, 0, 0, 0, 3]", fillcolor="#e539c0"] ;
779 -> 780 ;
781 [label="gini = 0.0\nsamples = 1\nvalue = [1, 0, 0, 0, 0]", fillcolor="#e58139"] ;
779 -> 781 ;
782 [label="gini = 0.0\nsamples = 17\nvalue = [29, 0, 0, 0, 0]", fillcolor="#e58139"] ;
778 -> 782 ;
}